<?xml version="1.0"?>
<opencv_storage>
<stage12>
  <maxWeakCount>4</maxWeakCount>
  <stageThreshold>-5.6009382009506226e-01</stageThreshold>
  <weakClassifiers>
    <_>
      <internalNodes>
        0 -1 4344 1395653631 -308376165 1594933649 -3620421 -309557035
        -875290481 -39485217 -69414049</internalNodes>
      <leafValues>
        -7.0093458890914917e-01 6.6371679306030273e-01</leafValues></_>
    <_>
      <internalNodes>
        0 -1 662 294719982 -543354703 1435056586 -168226653 -1607367681
        -124223096 -645060178 -7484022</internalNodes>
      <leafValues>
        -8.5488969087600708e-01 5.0800007581710815e-01</leafValues></_>
    <_>
      <internalNodes>
        0 -1 8114 -67373074 -995368061 -233197328 -723545709 -1970804513
        816979112 -259851533 -136577025</internalNodes>
      <leafValues>
        -8.4732133150100708e-01 5.2470529079437256e-01</leafValues></_>
    <_>
      <internalNodes>
        0 -1 2687 -1448742001 -726380075 -594440107 -707674095
        -184137435 -963604478 -795704252 -146436765</internalNodes>
      <leafValues>
        -8.9186465740203857e-01 5.0482898950576782e-01</leafValues></_></weakClassifiers></stage12>
</opencv_storage>
