<?xml version="1.0"?>
<opencv_storage>
<stage14>
  <maxWeakCount>4</maxWeakCount>
  <stageThreshold>-1.5671861171722412e+00</stageThreshold>
  <weakClassifiers>
    <_>
      <internalNodes>
        0 -1 1309 -754453026 -542290684 -902680514 -563326621
        -1351898708 -1196751962 -612136290 -357592117</internalNodes>
      <leafValues>
        -7.8366446495056152e-01 5.4868626594543457e-01</leafValues></_>
    <_>
      <internalNodes>
        0 -1 8304 -352342521 -775562697 1900040319 -150739437 -641035441
        -100628456 -268189046 -68169202</internalNodes>
      <leafValues>
        -7.3332142829895020e-01 5.9330451488494873e-01</leafValues></_>
    <_>
      <internalNodes>
        0 -1 87 -1074929865 -1242754897 -1136179951 -1256194029
        1497729246 -628095845 865230971 -52468258</internalNodes>
      <leafValues>
        -7.1763086318969727e-01 5.5695837736129761e-01</leafValues></_>
    <_>
      <internalNodes>
        0 -1 4875 -520630033 -124743617 570527121 -1400895224
        -1616135249 -1364392423 55151811 -1427595113</internalNodes>
      <leafValues>
        -6.6492003202438354e-01 6.3493746519088745e-01</leafValues></_></weakClassifiers></stage14>
</opencv_storage>
