<?xml version="1.0"?>
<opencv_storage>
<stage16>
  <maxWeakCount>4</maxWeakCount>
  <stageThreshold>-1.5714159011840820e+00</stageThreshold>
  <weakClassifiers>
    <_>
      <internalNodes>
        0 -1 4803 -477175089 -817315570 86138399 -582432486 -41111141
        -1433926267 -886819953 -315571326</internalNodes>
      <leafValues>
        -7.7452087402343750e-01 5.2322924137115479e-01</leafValues></_>
    <_>
      <internalNodes>
        0 -1 4305 -132335111 -15400095 288952445 -753332167 -1718511207
        -1143367293 432703672 -1107328871</internalNodes>
      <leafValues>
        -6.4704442024230957e-01 5.9724789857864380e-01</leafValues></_>
    <_>
      <internalNodes>
        0 -1 7931 -774901266 -823410842 -736770186 -297320042
        -1877796673 268533890 -712013141 -688794677</internalNodes>
      <leafValues>
        -7.6143223047256470e-01 5.1291626691818237e-01</leafValues></_>
    <_>
      <internalNodes>
        0 -1 870 -335487885 -788460463 -955687787 -784117679 2064138481
        -1581252448 1527302735 -7323511</internalNodes>
      <leafValues>
        -6.8616855144500732e-01 5.9264439344406128e-01</leafValues></_></weakClassifiers></stage16>
</opencv_storage>
