<?xml version="1.0"?>
<opencv_storage>
<cascade>
  <stageType>BOOST</stageType>
  <featureType>LBP</featureType>
  <height>24</height>
  <width>24</width>
  <stageParams>
    <boostType>GAB</boostType>
    <minHitRate>9.9500000476837158e-01</minHitRate>
    <maxFalseAlarm>5.0000000000000000e-01</maxFalseAlarm>
    <weightTrimRate>9.4999999999999996e-01</weightTrimRate>
    <maxDepth>1</maxDepth>
    <maxWeakCount>100</maxWeakCount></stageParams>
  <featureParams>
    <maxCatCount>256</maxCatCount>
    <featSize>1</featSize></featureParams>
  <stageNum>21</stageNum>
  <stages>
    <!-- stage 0 -->
    <_>
      <maxWeakCount>2</maxWeakCount>
      <stageThreshold>-2.1612349152565002e-01</stageThreshold>
      <weakClassifiers>
        <_>
          <internalNodes>
            0 -1 47 -661569441 2140362781 -997652389 2069566553
            -1744762641 -108309496 -2146615045 -3161957</internalNodes>
          <leafValues>
            -9.3474090099334717e-01 8.4110534191131592e-01</leafValues></_>
        <_>
          <internalNodes>
            0 -1 11 -44311042 -11202288 -779021228 -577777022
            -1735862790 -561475584 -838206470 -587074310</internalNodes>
          <leafValues>
            -9.3777608871459961e-01 7.1861737966537476e-01</leafValues></_></weakClassifiers></_>
    <!-- stage 1 -->
    <_>
      <maxWeakCount>3</maxWeakCount>
      <stageThreshold>-9.9790906906127930e-01</stageThreshold>
      <weakClassifiers>
        <_>
          <internalNodes>
            0 -1 2 -1547456577 -2911439 293720407 -145411757 -301233505
            -102594541 -1517036545 -78121001</internalNodes>
          <leafValues>
            -9.0448343753814697e-01 7.9045999050140381e-01</leafValues></_>
        <_>
          <internalNodes>
            0 -1 41 -11314081 -36739887 536953051 -707047205 -1987392257
            -1164203797 -401661701 -134233957</internalNodes>
          <leafValues>
            -7.9742985963821411e-01 7.9359394311904907e-01</leafValues></_>
        <_>
          <internalNodes>
            0 -1 55 -611847937 -543226836 269549713 -1572832 -1979581505
            -24165973 142817501 -637577067</internalNodes>
          <leafValues>
            -8.5461574792861938e-01 7.0400422811508179e-01</leafValues></_></weakClassifiers></_>
    <!-- stage 2 -->
    <_>
      <maxWeakCount>2</maxWeakCount>
      <stageThreshold>-1.2811943888664246e-01</stageThreshold>
      <weakClassifiers>
        <_>
          <internalNodes>
            0 -1 8 -210263121 -610458789 626991919 -681864865
            -1559322625 -16126839 -1211376645 -134479985</internalNodes>
          <leafValues>
            -9.3143975734710693e-01 8.0661576986312866e-01</leafValues></_>
        <_>
          <internalNodes>
            0 -1 18 1124058691 1942475339 1364825043 -237504249
            319017027 -595097081 1485558259 -2097157</internalNodes>
          <leafValues>
            -8.4916239976882935e-01 8.0332034826278687e-01</leafValues></_></weakClassifiers></_>
    <!-- stage 3 -->
    <_>
      <maxWeakCount>2</maxWeakCount>
      <stageThreshold>-1.2869998812675476e-01</stageThreshold>
      <weakClassifiers>
        <_>
          <internalNodes>
            0 -1 57 -153093169 -825765361 -2072915457 -29897441
            1930938691 1430753344 -104082725 -50601489</internalNodes>
          <leafValues>
            -8.5444235801696777e-01 7.9159367084503174e-01</leafValues></_>
        <_>
          <internalNodes>
            0 -1 28 -217 801895329 1637586329 -11284139 2080361079
            1267450166 -610274281 -3721</internalNodes>
          <leafValues>
            -8.3185303211212158e-01 7.2574234008789062e-01</leafValues></_></weakClassifiers></_>
    <!-- stage 4 -->
    <_>
      <maxWeakCount>3</maxWeakCount>
      <stageThreshold>-1.0316997766494751e+00</stageThreshold>
      <weakClassifiers>
        <_>
          <internalNodes>
            0 -1 38 -786449 -705957593 -115617377 -35983041 -743449221
            1364904203 -640947473 -59704540</internalNodes>
          <leafValues>
            -8.2982790470123291e-01 7.5216639041900635e-01</leafValues></_>
        <_>
          <internalNodes>
            0 -1 69 -167774210 -52496902 -268393512 -70335825 -50990780
            -888061291 -129639708 -1060865</internalNodes>
          <leafValues>
            -8.2751387357711792e-01 7.0535737276077271e-01</leafValues></_>
        <_>
          <internalNodes>
            0 -1 53 1788833615 1845326943 -962858017 -7355553 1888223215
            -73531957 -1056986161 -33563681</internalNodes>
          <leafValues>
            -9.3995815515518188e-01 6.2564200162887573e-01</leafValues></_></weakClassifiers></_>
    <!-- stage 5 -->
    <_>
      <maxWeakCount>2</maxWeakCount>
      <stageThreshold>-1.8082875013351440e-01</stageThreshold>
      <weakClassifiers>
        <_>
          <internalNodes>
            0 -1 27 -237895682 -149616267 293667336 -753696365
            -209128709 -1165385591 50907115 -477454599</internalNodes>
          <leafValues>
            -8.8355463743209839e-01 7.0843571424484253e-01</leafValues></_>
        <_>
          <internalNodes>
            0 -1 14 -216007169 -677832239 -671084390 -216379005
            -1377056085 -339049850 1619046063 -2012025409</internalNodes>
          <leafValues>
            -8.4270656108856201e-01 7.0272588729858398e-01</leafValues></_></weakClassifiers></_>
    <!-- stage 6 -->
    <_>
      <maxWeakCount>3</maxWeakCount>
      <stageThreshold>-1.0574642419815063e+00</stageThreshold>
      <weakClassifiers>
        <_>
          <internalNodes>
            0 -1 69 -70254594 -169951181 -803565156 -204554110
            -796819056 -2088183415 -108674940 -1025</internalNodes>
          <leafValues>
            -8.1214421987533569e-01 7.4694591760635376e-01</leafValues></_>
        <_>
          <internalNodes>
            0 -1 49 -68944918 -548077302 -267042347 -559949025
            -266092037 -95207285 -225449297 -186719473</internalNodes>
          <leafValues>
            -8.7064599990844727e-01 6.2704318761825562e-01</leafValues></_>
        <_>
          <internalNodes>
            0 -1 17 -606939393 -7083565 -2012722435 1585972377 -96237384
            -1471510386 -292639490 -319882513</internalNodes>
          <leafValues>
            -8.2286113500595093e-01 6.2532597780227661e-01</leafValues></_></weakClassifiers></_>
    <!-- stage 7 -->
    <_>
      <maxWeakCount>3</maxWeakCount>
      <stageThreshold>-9.9058079719543457e-01</stageThreshold>
      <weakClassifiers>
        <_>
          <internalNodes>
            0 -1 65 -3147778 -154222250 1510393900 -187260418 -522587228
            -788299637 -2002261036 -52698165</internalNodes>
          <leafValues>
            -8.7898087501525879e-01 6.5818762779235840e-01</leafValues></_>
        <_>
          <internalNodes>
            0 -1 4 -420499665 -407640677 -1413365609 -238304125
            -398334757 -1182711801 1523837167 -87038997</internalNodes>
          <leafValues>
            -7.3671054840087891e-01 7.1406346559524536e-01</leafValues></_>
        <_>
          <internalNodes>
            0 -1 56 -1243875329 -83246208 -683667151 -7349248
            -1400136705 -73170503 -1572478736 -8943275</internalNodes>
          <leafValues>
            -8.0914789438247681e-01 6.2511068582534790e-01</leafValues></_></weakClassifiers></_>
    <!-- stage 8 -->
    <_>
      <maxWeakCount>3</maxWeakCount>
      <stageThreshold>-9.6315062046051025e-01</stageThreshold>
      <weakClassifiers>
        <_>
          <internalNodes>
            0 -1 10 -136839170 -658320994 -1805221168 -218180845
            -662444656 -771518265 -205391227 -525409</internalNodes>
          <leafValues>
            -7.9651165008544922e-01 7.0376712083816528e-01</leafValues></_>
        <_>
          <internalNodes>
            0 -1 33 -186532933 -556409345 1409408477 -41563821
            -268388609 -872222576 -259800837 -89130289</internalNodes>
          <leafValues>
            -7.6949352025985718e-01 6.8686765432357788e-01</leafValues></_>
        <_>
          <internalNodes>
            0 -1 64 -420484606 -521674537 -664677951 -233066267
            -985012445 -1005420405 -225709157 -537398289</internalNodes>
          <leafValues>
            -8.2389891147613525e-01 6.0285454988479614e-01</leafValues></_></weakClassifiers></_>
    <!-- stage 9 -->
    <_>
      <maxWeakCount>3</maxWeakCount>
      <stageThreshold>-9.9204331636428833e-01</stageThreshold>
      <weakClassifiers>
        <_>
          <internalNodes>
            0 -1 34 1332740095 -220470833 1433240767 1945092591
            -108295937 -108756576 -1448883561 -67830796</internalNodes>
          <leafValues>
            -7.8206366300582886e-01 6.9733446836471558e-01</leafValues></_>
        <_>
          <internalNodes>
            0 -1 22 -353375229 -1983004493 -786627619 -212232005
            1129428547 -1865707517 -473435905 -204476449</internalNodes>
          <leafValues>
            -7.1658939123153687e-01 6.5334087610244751e-01</leafValues></_>
        <_>
          <internalNodes>
            0 -1 54 -104859169 -16083416 -1873703470 -5996416
            -1412912401 -1421440821 -1173705504 -14289611</internalNodes>
          <leafValues>
            -8.9586222171783447e-01 5.0660973787307739e-01</leafValues></_></weakClassifiers></_>
    <!-- stage 10 -->
    <_>
      <maxWeakCount>4</maxWeakCount>
      <stageThreshold>-4.2615845799446106e-01</stageThreshold>
      <weakClassifiers>
        <_>
          <internalNodes>
            0 -1 19 -167775002 -172248137 -2113319805 -16018509
            -78927113 -341603910 -525808761 -73145625</internalNodes>
          <leafValues>
            -8.0267214775085449e-01 6.3651180267333984e-01</leafValues></_>
        <_>
          <internalNodes>
            0 -1 59 1123017451 1384323539 -1979592245 -339484247
            -695481889 -658470752 45598863 -73418309</internalNodes>
          <leafValues>
            -7.4067276716232300e-01 6.6534340381622314e-01</leafValues></_>
        <_>
          <internalNodes>
            0 -1 6 -748694578 -40564331 -2129280610 -136983547
            -1062747653 -269900902 -406608945 -6715621</internalNodes>
          <leafValues>
            -8.5286486148834229e-01 5.2825081348419189e-01</leafValues></_>
        <_>
          <internalNodes>
            0 -1 24 -16778386 -10494494 -728122082 -135539715 1636233559
            1367903118 -1382896653 -139731489</internalNodes>
          <leafValues>
            -7.8849828243255615e-01 5.8893567323684692e-01</leafValues></_></weakClassifiers></_>
    <!-- stage 11 -->
    <_>
      <maxWeakCount>4</maxWeakCount>
      <stageThreshold>-1.6139385700225830e+00</stageThreshold>
      <weakClassifiers>
        <_>
          <internalNodes>
            0 -1 43 -35955617 2098586139 -770594595 -871284513
            -1344745781 -576405268 -2013156129 -74711361</internalNodes>
          <leafValues>
            -8.0334728956222534e-01 6.1736333370208740e-01</leafValues></_>
        <_>
          <internalNodes>
            0 -1 15 -704654849 -783219874 -1860509699 1057624538
            -1895006038 -271635030 -309547378 -1429296437</internalNodes>
          <leafValues>
            -8.1857722997665405e-01 5.5141627788543701e-01</leafValues></_>
        <_>
          <internalNodes>
            0 -1 12 -538324498 -145505825 -1706321994 -144843329
            -133236413 1964179843 -1229210893 -134218817</internalNodes>
          <leafValues>
            -7.8229546546936035e-01 5.7167929410934448e-01</leafValues></_>
        <_>
          <internalNodes>
            0 -1 21 -1079247053 -1087393873 1072954163 -206340173
            2139095039 -524297 2147483647 -269221889</internalNodes>
          <leafValues>
            -6.3042926788330078e-01 7.0408636331558228e-01</leafValues></_></weakClassifiers></_>
    <!-- stage 12 -->
    <_>
      <maxWeakCount>4</maxWeakCount>
      <stageThreshold>-5.6009382009506226e-01</stageThreshold>
      <weakClassifiers>
        <_>
          <internalNodes>
            0 -1 37 1395653631 -308376165 1594933649 -3620421 -309557035
            -875290481 -39485217 -69414049</internalNodes>
          <leafValues>
            -7.0093458890914917e-01 6.6371679306030273e-01</leafValues></_>
        <_>
          <internalNodes>
            0 -1 16 294719982 -543354703 1435056586 -168226653
            -1607367681 -124223096 -645060178 -7484022</internalNodes>
          <leafValues>
            -8.5488969087600708e-01 5.0800007581710815e-01</leafValues></_>
        <_>
          <internalNodes>
            0 -1 61 -67373074 -995368061 -233197328 -723545709
            -1970804513 816979112 -259851533 -136577025</internalNodes>
          <leafValues>
            -8.4732133150100708e-01 5.2470529079437256e-01</leafValues></_>
        <_>
          <internalNodes>
            0 -1 31 -1448742001 -726380075 -594440107 -707674095
            -184137435 -963604478 -795704252 -146436765</internalNodes>
          <leafValues>
            -8.9186465740203857e-01 5.0482898950576782e-01</leafValues></_></weakClassifiers></_>
    <!-- stage 13 -->
    <_>
      <maxWeakCount>4</maxWeakCount>
      <stageThreshold>-3.8638889789581299e-01</stageThreshold>
      <weakClassifiers>
        <_>
          <internalNodes>
            0 -1 48 -16818465 -1073741953 -50339841 -1 1073680271 -1
            -184582145 -1</internalNodes>
          <leafValues>
            -6.3429570198059082e-01 6.8590348958969116e-01</leafValues></_>
        <_>
          <internalNodes>
            0 -1 25 1364981247 1930664273 -41926108 -648556203
            -1257640967 -1352693503 -576088871 -591474533</internalNodes>
          <leafValues>
            -6.9301909208297729e-01 6.2132322788238525e-01</leafValues></_>
        <_>
          <internalNodes>
            0 -1 35 -100666609 -541328597 -775582577 1461559323
            -800796251 -1199538013 -1207662438 -735786540</internalNodes>
          <leafValues>
            -7.9574114084243774e-01 5.3313302993774414e-01</leafValues></_>
        <_>
          <internalNodes>
            0 -1 7 1922527810 -241855537 -209627237 -544650357
            1448063079 1939079303 -1960737793 -74464545</internalNodes>
          <leafValues>
            -8.9787447452545166e-01 4.4711589813232422e-01</leafValues></_></weakClassifiers></_>
    <!-- stage 14 -->
    <_>
      <maxWeakCount>4</maxWeakCount>
      <stageThreshold>-1.5671861171722412e+00</stageThreshold>
      <weakClassifiers>
        <_>
          <internalNodes>
            0 -1 26 -754453026 -542290684 -902680514 -563326621
            -1351898708 -1196751962 -612136290 -357592117</internalNodes>
          <leafValues>
            -7.8366446495056152e-01 5.4868626594543457e-01</leafValues></_>
        <_>
          <internalNodes>
            0 -1 63 -352342521 -775562697 1900040319 -150739437
            -641035441 -100628456 -268189046 -68169202</internalNodes>
          <leafValues>
            -7.3332142829895020e-01 5.9330451488494873e-01</leafValues></_>
        <_>
          <internalNodes>
            0 -1 0 -1074929865 -1242754897 -1136179951 -1256194029
            1497729246 -628095845 865230971 -52468258</internalNodes>
          <leafValues>
            -7.1763086318969727e-01 5.5695837736129761e-01</leafValues></_>
        <_>
          <internalNodes>
            0 -1 42 -520630033 -124743617 570527121 -1400895224
            -1616135249 -1364392423 55151811 -1427595113</internalNodes>
          <leafValues>
            -6.6492003202438354e-01 6.3493746519088745e-01</leafValues></_></weakClassifiers></_>
    <!-- stage 15 -->
    <_>
      <maxWeakCount>4</maxWeakCount>
      <stageThreshold>-4.1076424717903137e-01</stageThreshold>
      <weakClassifiers>
        <_>
          <internalNodes>
            0 -1 39 -744497169 -36984081 -872327819 -69353343 -204737121
            1376633811 -1187788134 -203230446</internalNodes>
          <leafValues>
            -6.8502414226531982e-01 6.0858368873596191e-01</leafValues></_>
        <_>
          <internalNodes>
            0 -1 58 -196881953 -1321689086 -2126445473 -537415668
            1787361759 -1098921972 143327627 -536897276</internalNodes>
          <leafValues>
            -7.0678478479385376e-01 5.8262252807617188e-01</leafValues></_>
        <_>
          <internalNodes>
            0 -1 9 -286814618 -1504734777 -1567500080 -1661245225
            -527788989 -1161952500 -255081477 -50466069</internalNodes>
          <leafValues>
            -8.1415933370590210e-01 4.7398531436920166e-01</leafValues></_>
        <_>
          <internalNodes>
            0 -1 3 -706900691 -753364287 -1790124669 -674721712
            -2037618296 -1375207423 -1828190196 -1899493360</internalNodes>
          <leafValues>
            -7.7951771020889282e-01 5.0705939531326294e-01</leafValues></_></weakClassifiers></_>
    <!-- stage 16 -->
    <_>
      <maxWeakCount>4</maxWeakCount>
      <stageThreshold>-1.5714159011840820e+00</stageThreshold>
      <weakClassifiers>
        <_>
          <internalNodes>
            0 -1 40 -477175089 -817315570 86138399 -582432486 -41111141
            -1433926267 -886819953 -315571326</internalNodes>
          <leafValues>
            -7.7452087402343750e-01 5.2322924137115479e-01</leafValues></_>
        <_>
          <internalNodes>
            0 -1 36 -132335111 -15400095 288952445 -753332167
            -1718511207 -1143367293 432703672 -1107328871</internalNodes>
          <leafValues>
            -6.4704442024230957e-01 5.9724789857864380e-01</leafValues></_>
        <_>
          <internalNodes>
            0 -1 60 -774901266 -823410842 -736770186 -297320042
            -1877796673 268533890 -712013141 -688794677</internalNodes>
          <leafValues>
            -7.6143223047256470e-01 5.1291626691818237e-01</leafValues></_>
        <_>
          <internalNodes>
            0 -1 20 -335487885 -788460463 -955687787 -784117679
            2064138481 -1581252448 1527302735 -7323511</internalNodes>
          <leafValues>
            -6.8616855144500732e-01 5.9264439344406128e-01</leafValues></_></weakClassifiers></_>
    <!-- stage 17 -->
    <_>
      <maxWeakCount>4</maxWeakCount>
      <stageThreshold>-1.5808190107345581e+00</stageThreshold>
      <weakClassifiers>
        <_>
          <internalNodes>
            0 -1 29 -537002001 -185598226 -1 -1 -42467353 1148583935 -41
            -9</internalNodes>
          <leafValues>
            -5.9558200836181641e-01 6.8523949384689331e-01</leafValues></_>
        <_>
          <internalNodes>
            0 -1 67 -278945273 -779041209 -1308616187 2089124419
            -1744737753 -1543471099 -1073330167 -73946509</internalNodes>
          <leafValues>
            -6.8337815999984741e-01 5.5573946237564087e-01</leafValues></_>
        <_>
          <internalNodes>
            0 -1 30 -1055664642 -1279137008 -1593747114 -787382263
            -1186294605 -1081597952 51456188 -1145102311</internalNodes>
          <leafValues>
            -8.3716261386871338e-01 4.5295035839080811e-01</leafValues></_>
        <_>
          <internalNodes>
            0 -1 50 -254681106 -1798307835 554762266 336265219
            -1548285521 -1450508288 -729612149 -259063653</internalNodes>
          <leafValues>
            -7.5480914115905762e-01 5.1470321416854858e-01</leafValues></_></weakClassifiers></_>
    <!-- stage 18 -->
    <_>
      <maxWeakCount>5</maxWeakCount>
      <stageThreshold>-8.3051067590713501e-01</stageThreshold>
      <weakClassifiers>
        <_>
          <internalNodes>
            0 -1 46 -760910117 1905275073 -2012733283 -1852616143
            -1563860239 -1696550479 -393713557 -6163505</internalNodes>
          <leafValues>
            -7.3867231607437134e-01 5.6035172939300537e-01</leafValues></_>
        <_>
          <internalNodes>
            0 -1 13 -716459553 -787382242 10684382 -602762516
            -2147282273 -358579827 -1844739876 -1075854353</internalNodes>
          <leafValues>
            -6.3628101348876953e-01 6.4996081590652466e-01</leafValues></_>
        <_>
          <internalNodes>
            0 -1 45 -528393 -8585218 -1073741828 -1207961281 -8947729
            -547553284 -557281 1004240879</internalNodes>
          <leafValues>
            -5.8167910575866699e-01 6.7585450410842896e-01</leafValues></_>
        <_>
          <internalNodes>
            0 -1 5 -1760833261 1065418969 545849361 -1526640639
            -829890509 -1164900159 1185679631 -287735655</internalNodes>
          <leafValues>
            -6.6061615943908691e-01 5.7565253973007202e-01</leafValues></_>
        <_>
          <internalNodes>
            0 -1 52 268587287 -729120497 81992 -1748229096 131231
            -1731714417 -2147444081 -1895538516</internalNodes>
          <leafValues>
            -7.3577260971069336e-01 5.4431456327438354e-01</leafValues></_></weakClassifiers></_>
    <!-- stage 19 -->
    <_>
      <maxWeakCount>5</maxWeakCount>
      <stageThreshold>-1.0905947685241699e+00</stageThreshold>
      <weakClassifiers>
        <_>
          <internalNodes>
            0 -1 68 -236980986 -887754599 -1039990669 -719482781
            -234700281 -1979711488 685490867 -1070677</internalNodes>
          <leafValues>
            -6.7684727907180786e-01 5.7974684238433838e-01</leafValues></_>
        <_>
          <internalNodes>
            0 -1 32 -1849185657 1499660803 285217168 1933312517
            -1878538613 -1826291071 -1971086965 -2009264997</internalNodes>
          <leafValues>
            -6.2509226799011230e-01 6.3987696170806885e-01</leafValues></_>
        <_>
          <internalNodes>
            0 -1 23 -288904446 -1022424958 -1332686375 -73956988
            1896898675 -1744830335 -1458728289 -234649455</internalNodes>
          <leafValues>
            -7.6606613397598267e-01 4.7596827149391174e-01</leafValues></_>
        <_>
          <internalNodes>
            0 -1 51 -742157441 -2147302895 88080657 805421440 1132663808
            167936008 1073815723 1293217486</internalNodes>
          <leafValues>
            -7.0557063817977905e-01 5.6281137466430664e-01</leafValues></_>
        <_>
          <internalNodes>
            0 -1 1 -1553346219 -573243147 -1879042031 1359024193
            1957134472 -499056640 -1845460927 -343900159</internalNodes>
          <leafValues>
            -8.3801549673080444e-01 4.2638751864433289e-01</leafValues></_></weakClassifiers></_>
    <!-- stage 20 -->
    <_>
      <maxWeakCount>5</maxWeakCount>
      <stageThreshold>-6.5300756692886353e-01</stageThreshold>
      <weakClassifiers>
        <_>
          <internalNodes>
            0 -1 23 -947666686 -1022490494 -1878998887 -250347520
            285212688 402653184 -1996156773 -234717056</internalNodes>
          <leafValues>
            -7.9206860065460205e-01 5.8326756954193115e-01</leafValues></_>
        <_>
          <internalNodes>
            0 -1 44 -922660397 1090732033 184551619 -805175296
            -2129624936 1610645641 134250667 -83327592</internalNodes>
          <leafValues>
            -6.1873263120651245e-01 7.5133407115936279e-01</leafValues></_>
        <_>
          <internalNodes>
            0 -1 66 -947986697 -1003094154 805158560 -520683724
            1702356848 1308621687 -461431280 -705440970</internalNodes>
          <leafValues>
            -5.5113106966018677e-01 7.8752869367599487e-01</leafValues></_>
        <_>
          <internalNodes>
            0 -1 5 18436371 -1878949816 8978433 -2130640855 134250505
            -402653056 8388616 -1065058296</internalNodes>
          <leafValues>
            -7.9039925336837769e-01 5.7812142372131348e-01</leafValues></_>
        <_>
          <internalNodes>
            0 -1 62 -503217074 -2097135616 168 -268369904 -1065312125
            -2147483632 -1073739639 -1358856176</internalNodes>
          <leafValues>
            -6.1467188596725464e-01 7.7722853422164917e-01</leafValues></_></weakClassifiers></_></stages>
  <features>
    <_>
      <rect>
        0 1 4 3</rect></_>
    <_>
      <rect>
        0 1 5 3</rect></_>
    <_>
      <rect>
        0 1 6 4</rect></_>
    <_>
      <rect>
        0 2 8 4</rect></_>
    <_>
      <rect>
        0 3 1 3</rect></_>
    <_>
      <rect>
        0 3 4 2</rect></_>
    <_>
      <rect>
        0 3 8 2</rect></_>
    <_>
      <rect>
        0 4 2 4</rect></_>
    <_>
      <rect>
        0 4 8 3</rect></_>
    <_>
      <rect>
        0 8 1 2</rect></_>
    <_>
      <rect>
        0 9 1 3</rect></_>
    <_>
      <rect>
        0 9 8 5</rect></_>
    <_>
      <rect>
        0 10 2 2</rect></_>
    <_>
      <rect>
        0 13 1 2</rect></_>
    <_>
      <rect>
        0 14 4 3</rect></_>
    <_>
      <rect>
        0 15 5 3</rect></_>
    <_>
      <rect>
        0 15 8 2</rect></_>
    <_>
      <rect>
        0 16 4 2</rect></_>
    <_>
      <rect>
        1 1 2 5</rect></_>
    <_>
      <rect>
        1 2 4 6</rect></_>
    <_>
      <rect>
        1 2 5 2</rect></_>
    <_>
      <rect>
        1 3 4 2</rect></_>
    <_>
      <rect>
        1 5 1 3</rect></_>
    <_>
      <rect>
        1 6 1 2</rect></_>
    <_>
      <rect>
        1 7 2 2</rect></_>
    <_>
      <rect>
        1 12 4 3</rect></_>
    <_>
      <rect>
        1 15 5 2</rect></_>
    <_>
      <rect>
        2 4 7 2</rect></_>
    <_>
      <rect>
        2 6 2 2</rect></_>
    <_>
      <rect>
        2 6 2 4</rect></_>
    <_>
      <rect>
        3 15 7 3</rect></_>
    <_>
      <rect>
        4 0 3 4</rect></_>
    <_>
      <rect>
        4 8 2 5</rect></_>
    <_>
      <rect>
        5 0 6 4</rect></_>
    <_>
      <rect>
        5 2 4 5</rect></_>
    <_>
      <rect>
        5 3 3 4</rect></_>
    <_>
      <rect>
        6 18 6 2</rect></_>
    <_>
      <rect>
        7 0 3 5</rect></_>
    <_>
      <rect>
        7 7 3 3</rect></_>
    <_>
      <rect>
        7 7 3 4</rect></_>
    <_>
      <rect>
        8 0 3 4</rect></_>
    <_>
      <rect>
        8 0 5 3</rect></_>
    <_>
      <rect>
        8 2 3 3</rect></_>
    <_>
      <rect>
        8 2 5 2</rect></_>
    <_>
      <rect>
        8 7 3 2</rect></_>
    <_>
      <rect>
        8 11 3 4</rect></_>
    <_>
      <rect>
        9 0 5 3</rect></_>
    <_>
      <rect>
        9 1 5 3</rect></_>
    <_>
      <rect>
        9 4 5 2</rect></_>
    <_>
      <rect>
        10 3 4 5</rect></_>
    <_>
      <rect>
        11 2 4 6</rect></_>
    <_>
      <rect>
        11 10 1 3</rect></_>
    <_>
      <rect>
        11 11 4 4</rect></_>
    <_>
      <rect>
        12 1 4 4</rect></_>
    <_>
      <rect>
        12 14 4 2</rect></_>
    <_>
      <rect>
        12 15 4 3</rect></_>
    <_>
      <rect>
        12 16 4 2</rect></_>
    <_>
      <rect>
        14 6 3 3</rect></_>
    <_>
      <rect>
        15 15 3 3</rect></_>
    <_>
      <rect>
        17 1 2 5</rect></_>
    <_>
      <rect>
        17 8 2 3</rect></_>
    <_>
      <rect>
        18 8 2 2</rect></_>
    <_>
      <rect>
        19 6 1 1</rect></_>
    <_>
      <rect>
        20 3 1 3</rect></_>
    <_>
      <rect>
        20 5 1 3</rect></_>
    <_>
      <rect>
        20 9 1 3</rect></_>
    <_>
      <rect>
        21 0 1 2</rect></_>
    <_>
      <rect>
        21 3 1 3</rect></_>
    <_>
      <rect>
        21 7 1 2</rect></_>
    <_>
      <rect>
        21 8 1 4</rect></_></features></cascade>
</opencv_storage>
