<?xml version="1.0"?>
<opencv_storage>
<stage17>
  <maxWeakCount>4</maxWeakCount>
  <stageThreshold>-1.5808190107345581e+00</stageThreshold>
  <weakClassifiers>
    <_>
      <internalNodes>
        0 -1 1676 -537002001 -185598226 -1 -1 -42467353 1148583935 -41
        -9</internalNodes>
      <leafValues>
        -5.9558200836181641e-01 6.8523949384689331e-01</leafValues></_>
    <_>
      <internalNodes>
        0 -1 8396 -278945273 -779041209 -1308616187 2089124419
        -1744737753 -1543471099 -1073330167 -73946509</internalNodes>
      <leafValues>
        -6.8337815999984741e-01 5.5573946237564087e-01</leafValues></_>
    <_>
      <internalNodes>
        0 -1 2604 -1055664642 -1279137008 -1593747114 -787382263
        -1186294605 -1081597952 51456188 -1145102311</internalNodes>
      <leafValues>
        -8.3716261386871338e-01 4.5295035839080811e-01</leafValues></_>
    <_>
      <internalNodes>
        0 -1 6158 -254681106 -1798307835 554762266 336265219 -1548285521
        -1450508288 -729612149 -259063653</internalNodes>
      <leafValues>
        -7.5480914115905762e-01 5.1470321416854858e-01</leafValues></_></weakClassifiers></stage17>
</opencv_storage>
