<?xml version="1.0"?>
<opencv_storage>
<stage18>
  <maxWeakCount>7</maxWeakCount>
  <stageThreshold>-1.5493153333663940e+00</stageThreshold>
  <weakClassifiers>
    <_>
      <internalNodes>
        0 -1 104785 -5.1346909458516166e-05</internalNodes>
      <leafValues>
        3.9449542760848999e-01 -6.5151512622833252e-01</leafValues></_>
    <_>
      <internalNodes>
        0 -1 162055 -5.4715871810913086e-03</internalNodes>
      <leafValues>
        -8.1314170360565186e-01 2.7620348334312439e-01</leafValues></_>
    <_>
      <internalNodes>
        0 -1 243988 5.5097287986427546e-04</internalNodes>
      <leafValues>
        -8.1883889436721802e-01 2.5654816627502441e-01</leafValues></_>
    <_>
      <internalNodes>
        0 -1 253653 1.1216994607821107e-03</internalNodes>
      <leafValues>
        -6.9089430570602417e-01 2.7531319856643677e-01</leafValues></_>
    <_>
      <internalNodes>
        0 -1 10728 1.6874218359589577e-02</internalNodes>
      <leafValues>
        -2.8348606824874878e-01 8.4537643194198608e-01</leafValues></_>
    <_>
      <internalNodes>
        0 -1 63278 -8.5626868531107903e-04</internalNodes>
      <leafValues>
        -9.6250295639038086e-01 2.5092688202857971e-01</leafValues></_>
    <_>
      <internalNodes>
        0 -1 138553 -2.5965691747842357e-05</internalNodes>
      <leafValues>
        2.0123405754566193e-01 -7.0709836483001709e-01</leafValues></_></weakClassifiers></stage18>
</opencv_storage>
