<?xml version="1.0"?>
<opencv_storage>
<stage16>
  <maxWeakCount>6</maxWeakCount>
  <stageThreshold>-1.2883384227752686e+00</stageThreshold>
  <weakClassifiers>
    <_>
      <internalNodes>
        0 -1 227619 -3.4922277554869652e-03</internalNodes>
      <leafValues>
        -8.6071425676345825e-01 3.1298699975013733e-01</leafValues></_>
    <_>
      <internalNodes>
        0 -1 145804 -1.7006704001687467e-04</internalNodes>
      <leafValues>
        -8.7692010402679443e-01 2.4700966477394104e-01</leafValues></_>
    <_>
      <internalNodes>
        0 -1 25790 -2.1537400782108307e-02</internalNodes>
      <leafValues>
        5.5049765110015869e-01 -4.7417774796485901e-01</leafValues></_>
    <_>
      <internalNodes>
        0 -1 162739 -5.2066855132579803e-03</internalNodes>
      <leafValues>
        -9.4261831045150757e-01 2.5767603516578674e-01</leafValues></_>
    <_>
      <internalNodes>
        0 -1 251632 -1.7031192546710372e-03</internalNodes>
      <leafValues>
        -8.4044915437698364e-01 2.1927262842655182e-01</leafValues></_>
    <_>
      <internalNodes>
        0 -1 162337 4.0317107050213963e-05</internalNodes>
      <leafValues>
        -6.5564095973968506e-01 3.3254554867744446e-01</leafValues></_></weakClassifiers></stage16>
</opencv_storage>
