<?xml version="1.0"?>
<opencv_storage>
<stage19>
  <maxWeakCount>7</maxWeakCount>
  <stageThreshold>-1.0910439491271973e+00</stageThreshold>
  <weakClassifiers>
    <_>
      <internalNodes>
        0 -1 147473 3.9455899968743324e-04</internalNodes>
      <leafValues>
        4.0532082319259644e-01 -6.3017034530639648e-01</leafValues></_>
    <_>
      <internalNodes>
        0 -1 186603 2.4068314582109451e-02</internalNodes>
      <leafValues>
        -3.9106488227844238e-01 6.5685135126113892e-01</leafValues></_>
    <_>
      <internalNodes>
        0 -1 252528 -2.4766320711933076e-04</internalNodes>
      <leafValues>
        4.6280786395072937e-01 -5.5670183897018433e-01</leafValues></_>
    <_>
      <internalNodes>
        0 -1 124627 -8.0260320100933313e-04</internalNodes>
      <leafValues>
        -9.8750466108322144e-01 3.1398606300354004e-01</leafValues></_>
    <_>
      <internalNodes>
        0 -1 8795 3.3983662724494934e-02</internalNodes>
      <leafValues>
        -3.9436703920364380e-01 8.0081331729888916e-01</leafValues></_>
    <_>
      <internalNodes>
        0 -1 117123 -4.4758990406990051e-04</internalNodes>
      <leafValues>
        -9.0843683481216431e-01 3.1093555688858032e-01</leafValues></_>
    <_>
      <internalNodes>
        0 -1 72522 -2.9624154194607399e-05</internalNodes>
      <leafValues>
        2.5633853673934937e-01 -7.0566385984420776e-01</leafValues></_></weakClassifiers></stage19>
</opencv_storage>
