<?xml version="1.0"?>
<opencv_storage>
<stage13>
  <maxWeakCount>5</maxWeakCount>
  <stageThreshold>-5.3907573223114014e-01</stageThreshold>
  <weakClassifiers>
    <_>
      <internalNodes>
        0 -1 238268 -2.5770939886569977e-02</internalNodes>
      <leafValues>
        7.1693122386932373e-01 -4.0327382087707520e-01</leafValues></_>
    <_>
      <internalNodes>
        0 -1 16505 2.5199184165103361e-05</internalNodes>
      <leafValues>
        -7.8637444972991943e-01 3.5777428746223450e-01</leafValues></_>
    <_>
      <internalNodes>
        0 -1 55967 1.0601375252008438e-01</internalNodes>
      <leafValues>
        -3.6340233683586121e-01 7.2770291566848755e-01</leafValues></_>
    <_>
      <internalNodes>
        0 -1 244515 5.0627805292606354e-02</internalNodes>
      <leafValues>
        -3.1780582666397095e-01 8.1305724382400513e-01</leafValues></_>
    <_>
      <internalNodes>
        0 -1 240616 -1.6836873255670071e-03</internalNodes>
      <leafValues>
        -9.3257308006286621e-01 3.5850337147712708e-01</leafValues></_></weakClassifiers></stage13>
</opencv_storage>
