<?xml version="1.0"?>
<opencv_storage>
<stage8>
  <maxWeakCount>4</maxWeakCount>
  <stageThreshold>-4.0150925517082214e-01</stageThreshold>
  <weakClassifiers>
    <_>
      <internalNodes>
        0 -1 654 -614468609 -146933538 -3342433 -1177418862 -1299273496
        -1347451126 -1444368690 -1427445589</internalNodes>
      <leafValues>
        -8.3032876253128052e-01 6.2291169166564941e-01</leafValues></_>
    <_>
      <internalNodes>
        0 -1 341 -268706961 1029281783 -788475425 -75414051 -15168909
        2072566732 -912161537 -286321</internalNodes>
      <leafValues>
        -7.6621514558792114e-01 6.4976364374160767e-01</leafValues></_>
    <_>
      <internalNodes>
        0 -1 1393 1157627591 -137895613 -779156427 -82078973 1602980261
        -1115504447 1556316323 -79955503</internalNodes>
      <leafValues>
        -8.4164690971374512e-01 5.9583306312561035e-01</leafValues></_>
    <_>
      <internalNodes>
        0 -1 8427 -42470402 -619448173 486720012 -585196789 -82972452
        -1576957277 -175310620 -536872193</internalNodes>
      <leafValues>
        -7.9428917169570923e-01 5.9920156002044678e-01</leafValues></_></weakClassifiers></stage8>
</opencv_storage>
