<?xml version="1.0"?>
<opencv_storage>
<stage13>
  <maxWeakCount>4</maxWeakCount>
  <stageThreshold>-1.1238299310207367e-01</stageThreshold>
  <weakClassifiers>
    <_>
      <internalNodes>
        0 -1 3995 -645867011 -587136895 1224825049 2051608845
        -2013200315 142606336 9226383 1491920904</internalNodes>
      <leafValues>
        -6.7992424964904785e-01 6.8773949146270752e-01</leafValues></_>
    <_>
      <internalNodes>
        0 -1 8420 -1055797242 -1073536605 536936672 -653160413
        -1610579966 -1472135160 436250786 -821329717</internalNodes>
      <leafValues>
        -7.7686816453933716e-01 5.8309954404830933e-01</leafValues></_>
    <_>
      <internalNodes>
        0 -1 6281 -141061857 -1457799040 285233698 1078362114
        -1073381301 12713984 -2113763125 1975575083</internalNodes>
      <leafValues>
        -7.1603178977966309e-01 5.9146469831466675e-01</leafValues></_>
    <_>
      <internalNodes>
        0 -1 753 -130039630 -71571731 183442474 -1381243736 -679492053
        -1073779098 117383338 -268482918</internalNodes>
      <leafValues>
        -6.0702300071716309e-01 7.5756263732910156e-01</leafValues></_></weakClassifiers></stage13>
</opencv_storage>
