<?xml version="1.0"?>
<opencv_storage>
<stage12>
  <maxWeakCount>6</maxWeakCount>
  <stageThreshold>-3.8653326034545898e-01</stageThreshold>
  <weakClassifiers>
    <_>
      <internalNodes>
        0 -1 4572 -35931201 -150239002 537292963 -1840185216 -1328552801
        1460510419 -1845389077 -235733614</internalNodes>
      <leafValues>
        -6.6502463817596436e-01 6.2211984395980835e-01</leafValues></_>
    <_>
      <internalNodes>
        0 -1 4305 -804179535 -107753153 1392515352 1896956241 1887473817
        -16742343 940089528 -1618233089</internalNodes>
      <leafValues>
        -6.3963955640792847e-01 5.8148562908172607e-01</leafValues></_>
    <_>
      <internalNodes>
        0 -1 8082 -488115486 1926203793 -1845259853 -129675211
        -250509393 998342809 -1273920371 -3432021</internalNodes>
      <leafValues>
        -7.4204999208450317e-01 5.1154655218124390e-01</leafValues></_>
    <_>
      <internalNodes>
        0 -1 191 -1147672777 1003609373 -1258268649 186237204 -371070417
        2021656580 170576543 -339613461</internalNodes>
      <leafValues>
        -6.9175809621810913e-01 5.4882639646530151e-01</leafValues></_>
    <_>
      <internalNodes>
        0 -1 8013 -148648624 -1034433531 -2147367679 -766738432
        1292169730 -654206776 -1467979776 -286270689</internalNodes>
      <leafValues>
        -6.3333868980407715e-01 6.2904965877532959e-01</leafValues></_>
    <_>
      <internalNodes>
        0 -1 3218 268505208 -720371686 83956021 -1118813168 -2008774403
        -1392344952 -1710912564 403996816</internalNodes>
      <leafValues>
        -7.5045049190521240e-01 5.2356797456741333e-01</leafValues></_></weakClassifiers></stage12>
</opencv_storage>
