<?xml version="1.0"?>
<opencv_storage>
<cascade>
  <stageType>BOOST</stageType>
  <featureType>LBP</featureType>
  <height>24</height>
  <width>24</width>
  <stageParams>
    <boostType>GAB</boostType>
    <minHitRate>9.9699997901916504e-01</minHitRate>
    <maxFalseAlarm>5.0000000000000000e-01</maxFalseAlarm>
    <weightTrimRate>9.4999999999999996e-01</weightTrimRate>
    <maxDepth>1</maxDepth>
    <maxWeakCount>100</maxWeakCount></stageParams>
  <featureParams>
    <maxCatCount>256</maxCatCount>
    <featSize>1</featSize></featureParams>
  <stageNum>20</stageNum>
  <stages>
    <!-- stage 0 -->
    <_>
      <maxWeakCount>2</maxWeakCount>
      <stageThreshold>-1.6239458322525024e-01</stageThreshold>
      <weakClassifiers>
        <_>
          <internalNodes>
            0 -1 50 -669958049 2131974157 -997652389 2069565465
            -1744762641 -108309496 -2146615045 -3161957</internalNodes>
          <leafValues>
            -9.3587172031402588e-01 8.4754991531372070e-01</leafValues></_>
        <_>
          <internalNodes>
            0 -1 13 -246295074 -552529661 -1727950754 -16574182
            -2013230917 -351797248 -914097926 -74719062</internalNodes>
          <leafValues>
            -8.9711904525756836e-01 7.7347713708877563e-01</leafValues></_></weakClassifiers></_>
    <!-- stage 1 -->
    <_>
      <maxWeakCount>3</maxWeakCount>
      <stageThreshold>-9.7123950719833374e-01</stageThreshold>
      <weakClassifiers>
        <_>
          <internalNodes>
            0 -1 4 -1412976705 -137260271 360829783 -141430447
            -292844641 -387868133 -1518085121 -67643497</internalNodes>
          <leafValues>
            -9.0110999345779419e-01 8.0522996187210083e-01</leafValues></_>
        <_>
          <internalNodes>
            0 -1 24 -738488321 -217984745 118031127 -141225637
            -1735819013 -75790193 -1014498341 -137108581</internalNodes>
          <leafValues>
            -7.5359642505645752e-01 8.4778857231140137e-01</leafValues></_>
        <_>
          <internalNodes>
            0 -1 61 -170927105 -553647650 1427886296 -8224638 -888165909
            -1140684158 -1564223248 -6166383</internalNodes>
          <leafValues>
            -9.1791808605194092e-01 7.2019082307815552e-01</leafValues></_></weakClassifiers></_>
    <!-- stage 2 -->
    <_>
      <maxWeakCount>2</maxWeakCount>
      <stageThreshold>-1.4859603345394135e-01</stageThreshold>
      <weakClassifiers>
        <_>
          <internalNodes>
            0 -1 7 1875898183 88592731 -149712417 -241183781 1362360407
            9147173 -745018441 -1025</internalNodes>
          <leafValues>
            -9.0600001811981201e-01 8.2363635301589966e-01</leafValues></_>
        <_>
          <internalNodes>
            0 -1 1 -137366642 -144485521 -184297345 -241962209
            -216794433 -1340913169 -142107729 -134219265</internalNodes>
          <leafValues>
            -9.4594460725784302e-01 7.5740396976470947e-01</leafValues></_></weakClassifiers></_>
    <!-- stage 3 -->
    <_>
      <maxWeakCount>3</maxWeakCount>
      <stageThreshold>-9.1904222965240479e-01</stageThreshold>
      <weakClassifiers>
        <_>
          <internalNodes>
            0 -1 60 -754974737 -329529873 1514394783 -220481129 224015
            1934352587 -1064174661 -121635957</internalNodes>
          <leafValues>
            -8.7904065847396851e-01 7.3882561922073364e-01</leafValues></_>
        <_>
          <internalNodes>
            0 -1 2 -500175357 -1073232505 -805091325 -602881773
            -465051477 -1392491832 -531638133 -71304213</internalNodes>
          <leafValues>
            -7.2948390245437622e-01 8.1625837087631226e-01</leafValues></_>
        <_>
          <internalNodes>
            0 -1 34 -772292689 -2112045 341250855 -169879081 -262153729
            -540098159 -458431489 -723522305</internalNodes>
          <leafValues>
            -8.5569894313812256e-01 6.8948233127593994e-01</leafValues></_></weakClassifiers></_>
    <!-- stage 4 -->
    <_>
      <maxWeakCount>2</maxWeakCount>
      <stageThreshold>-1.7584735155105591e-01</stageThreshold>
      <weakClassifiers>
        <_>
          <internalNodes>
            0 -1 59 1826582367 2077959103 -392433153 -2232353 1613233151
            -73030989 -930879489 -2102337</internalNodes>
          <leafValues>
            -8.9684212207794189e-01 7.4086958169937134e-01</leafValues></_>
        <_>
          <internalNodes>
            0 -1 39 1130362719 -2645025 1762775519 -7282237 -35913729
            -121322738 -40178697 -52364460</internalNodes>
          <leafValues>
            -8.7122666835784912e-01 7.2099477052688599e-01</leafValues></_></weakClassifiers></_>
    <!-- stage 5 -->
    <_>
      <maxWeakCount>2</maxWeakCount>
      <stageThreshold>-1.8742308020591736e-01</stageThreshold>
      <weakClassifiers>
        <_>
          <internalNodes>
            0 -1 72 -2097154 -226047614 -2143233748 -799606718
            -259944316 -268033917 -389838672 -50335249</internalNodes>
          <leafValues>
            -9.0077179670333862e-01 6.8482816219329834e-01</leafValues></_>
        <_>
          <internalNodes>
            0 -1 43 -541074481 -720432801 -573339177 -673738597
            -1014445953 1346541838 -399782418 -37434460</internalNodes>
          <leafValues>
            -8.2127243280410767e-01 7.1334868669509888e-01</leafValues></_></weakClassifiers></_>
    <!-- stage 6 -->
    <_>
      <maxWeakCount>2</maxWeakCount>
      <stageThreshold>-2.7114823460578918e-01</stageThreshold>
      <weakClassifiers>
        <_>
          <internalNodes>
            0 -1 11 -538970113 -136376251 -799894504 -40365925
            -376861973 -1416920534 -457135986 -2004302613</internalNodes>
          <leafValues>
            -8.8286334276199341e-01 6.9100171327590942e-01</leafValues></_>
        <_>
          <internalNodes>
            0 -1 23 -772015106 -681717455 -2060319990 -674414379
            -209004865 -1279096152 -696204577 -140654131</internalNodes>
          <leafValues>
            -8.9418345689773560e-01 6.1171507835388184e-01</leafValues></_></weakClassifiers></_>
    <!-- stage 7 -->
    <_>
      <maxWeakCount>4</maxWeakCount>
      <stageThreshold>-2.9837948083877563e-01</stageThreshold>
      <weakClassifiers>
        <_>
          <internalNodes>
            0 -1 28 1090517847 -6298893 -238977007 -950812653 1386737863
            -1432690512 1091025139 -68171017</internalNodes>
          <leafValues>
            -7.9692310094833374e-01 6.9066667556762695e-01</leafValues></_>
        <_>
          <internalNodes>
            0 -1 71 -353637886 -534552301 -1056863525 -762322301
            -775716109 -56475646 -288104001 -606077253</internalNodes>
          <leafValues>
            -8.2754409313201904e-01 6.1560523509979248e-01</leafValues></_>
        <_>
          <internalNodes>
            0 -1 53 -2099713 -82311552 -787246247 -3205112 1795875839
            -1624678400 -1451097864 -74503903</internalNodes>
          <leafValues>
            -8.2803940773010254e-01 5.9954565763473511e-01</leafValues></_>
        <_>
          <internalNodes>
            0 -1 45 -236990209 -624425914 1947845471 -844041336
            -49692177 -478129910 -132477469 -1092041826</internalNodes>
          <leafValues>
            -6.9868534803390503e-01 7.2654199600219727e-01</leafValues></_></weakClassifiers></_>
    <!-- stage 8 -->
    <_>
      <maxWeakCount>4</maxWeakCount>
      <stageThreshold>-5.3038525581359863e-01</stageThreshold>
      <weakClassifiers>
        <_>
          <internalNodes>
            0 -1 46 -203727777 1966466139 -904805121 -572964711
            -1459568433 -119701335 -90535685 -7632449</internalNodes>
          <leafValues>
            -7.7342945337295532e-01 6.6519045829772949e-01</leafValues></_>
        <_>
          <internalNodes>
            0 -1 10 -10485778 -677391921 1616099446 -254045474
            -1023152125 1996718822 -208424473 -139464533</internalNodes>
          <leafValues>
            -8.2858240604400635e-01 5.8007109165191650e-01</leafValues></_>
        <_>
          <internalNodes>
            0 -1 14 -243269637 -14958346 -12536429 1001261466 -343766902
            -1412708086 -1343444786 -1360090133</internalNodes>
          <leafValues>
            -8.5146808624267578e-01 5.4118931293487549e-01</leafValues></_>
        <_>
          <internalNodes>
            0 -1 57 -69209366 -790519613 -775696898 -23694782 -217070617
            -234020860 -1466580993 -18550424</internalNodes>
          <leafValues>
            -8.6876553297042847e-01 5.3043729066848755e-01</leafValues></_></weakClassifiers></_>
    <!-- stage 9 -->
    <_>
      <maxWeakCount>4</maxWeakCount>
      <stageThreshold>-4.3613630533218384e-01</stageThreshold>
      <weakClassifiers>
        <_>
          <internalNodes>
            0 -1 3 -1074790601 -1113653083 -1793519085 -1760463853
            970518759 -39612264 2055272479 -69218417</internalNodes>
          <leafValues>
            -7.3637264966964722e-01 6.8102657794952393e-01</leafValues></_>
        <_>
          <internalNodes>
            0 -1 6 -773983234 -607424039 -2130665202 -681878779
            -149376549 -71226994 621298667 -5262369</internalNodes>
          <leafValues>
            -7.4034357070922852e-01 6.4877462387084961e-01</leafValues></_>
        <_>
          <internalNodes>
            0 -1 19 -1343750153 -572526241 -49947177 -1252586479
            998496663 -1232795431 1887827574 -204220329</internalNodes>
          <leafValues>
            -8.8213098049163818e-01 5.1290917396545410e-01</leafValues></_>
        <_>
          <internalNodes>
            0 -1 68 587198383 668308611 1286330775 1228002369 1149365167
            983474202 1300884443 -337904965</internalNodes>
          <leafValues>
            -8.0352789163589478e-01 5.3359270095825195e-01</leafValues></_></weakClassifiers></_>
    <!-- stage 10 -->
    <_>
      <maxWeakCount>4</maxWeakCount>
      <stageThreshold>-4.6644544601440430e-01</stageThreshold>
      <weakClassifiers>
        <_>
          <internalNodes>
            0 -1 5 -286281969 -268439553 805306011 -33555457 -662702081
            -1048581 -536871425 -1</internalNodes>
          <leafValues>
            -6.9016695022583008e-01 7.2798436880111694e-01</leafValues></_>
        <_>
          <internalNodes>
            0 -1 12 -1818502657 -708837088 -1972991810 -431849013
            -343033192 -1162114773 -1459050359 -925791335</internalNodes>
          <leafValues>
            -8.1870210170745850e-01 5.8071321249008179e-01</leafValues></_>
        <_>
          <internalNodes>
            0 -1 37 1937765135 1938343167 -1803513125 1438565335
            -41829245 -1165721403 -87183216 -39556204</internalNodes>
          <leafValues>
            -8.5307925939559937e-01 5.0058656930923462e-01</leafValues></_>
        <_>
          <internalNodes>
            0 -1 74 -752887042 1241760643 16777232 -721272790
            -2132686592 -2010537975 -511063488 -336072769</internalNodes>
          <leafValues>
            -8.0808424949645996e-01 5.4183709621429443e-01</leafValues></_></weakClassifiers></_>
    <!-- stage 11 -->
    <_>
      <maxWeakCount>4</maxWeakCount>
      <stageThreshold>-1.6223598718643188e+00</stageThreshold>
      <weakClassifiers>
        <_>
          <internalNodes>
            0 -1 44 -536870929 -9437185 -1 -3145737 -33 1464467423
            -8388641 -2949358</internalNodes>
          <leafValues>
            -6.4501374959945679e-01 7.0009928941726685e-01</leafValues></_>
        <_>
          <internalNodes>
            0 -1 49 -3446049 2068018211 -2012067621 -50220803 -83843333
            -97406045 -23590213 -4195697</internalNodes>
          <leafValues>
            -6.9584828615188599e-01 6.3679504394531250e-01</leafValues></_>
        <_>
          <internalNodes>
            0 -1 9 -191109138 -2010127921 852627538 -1462259045
            -203687865 -585138165 -419169289 -3345</internalNodes>
          <leafValues>
            -7.3899024724960327e-01 5.9195691347122192e-01</leafValues></_>
        <_>
          <internalNodes>
            0 -1 62 -1256718469 -8089184 67375392 -49401208 -1340536387
            -1091862499 -534206224 -73175759</internalNodes>
          <leafValues>
            -8.9246487617492676e-01 4.5749232172966003e-01</leafValues></_></weakClassifiers></_>
    <!-- stage 12 -->
    <_>
      <maxWeakCount>5</maxWeakCount>
      <stageThreshold>-1.1415454149246216e+00</stageThreshold>
      <weakClassifiers>
        <_>
          <internalNodes>
            0 -1 63 -153747465 -1627914345 -264437749 -662503421
            -187715441 1996480522 -66379777 -50331649</internalNodes>
          <leafValues>
            -6.3720071315765381e-01 6.8244576454162598e-01</leafValues></_>
        <_>
          <internalNodes>
            0 -1 47 -201588897 -876352517 1828950395 -6600499 -702684860
            1467716139 -360015621 -1770676</internalNodes>
          <leafValues>
            -6.6403073072433472e-01 6.3788014650344849e-01</leafValues></_>
        <_>
          <internalNodes>
            0 -1 22 -320871934 -129513449 -1859399459 -214843237
            1885532791 -928481142 -233331973 -219159821</internalNodes>
          <leafValues>
            -7.7481639385223389e-01 5.1648646593093872e-01</leafValues></_>
        <_>
          <internalNodes>
            0 -1 30 -245893121 -785055734 -2130550606 -2130193773
            -352204579 -351564895 -914301555 -930297011</internalNodes>
          <leafValues>
            -7.8195405006408691e-01 4.7618448734283447e-01</leafValues></_>
        <_>
          <internalNodes>
            0 -1 32 -1427125057 -1668742059 85040407 667092103
            -117415475 -398457726 -913716086 -685389115</internalNodes>
          <leafValues>
            -8.4359294176101685e-01 4.6203482151031494e-01</leafValues></_></weakClassifiers></_>
    <!-- stage 13 -->
    <_>
      <maxWeakCount>4</maxWeakCount>
      <stageThreshold>-4.3577823042869568e-01</stageThreshold>
      <weakClassifiers>
        <_>
          <internalNodes>
            0 -1 67 -137626641 -972310237 -785973115 -18906879
            2000792374 1392544267 -108359973 -121656901</internalNodes>
          <leafValues>
            -7.4589264392852783e-01 5.7371526956558228e-01</leafValues></_>
        <_>
          <internalNodes>
            0 -1 17 1434451526 -742403373 805566611 -137660333
            1367589094 -125121919 1673242795 -68425777</internalNodes>
          <leafValues>
            -8.0160379409790039e-01 4.8844480514526367e-01</leafValues></_>
        <_>
          <internalNodes>
            0 -1 42 -214835397 -406747455 1632327691 -979550137
            -934508368 -897318895 -913732857 -623056452</internalNodes>
          <leafValues>
            -7.0200711488723755e-01 5.4764044284820557e-01</leafValues></_>
        <_>
          <internalNodes>
            0 -1 15 -1224650537 -575602091 40910967 -159382503
            -1325357912 -491650816 -645874950 -353713169</internalNodes>
          <leafValues>
            -7.1456396579742432e-01 5.6407779455184937e-01</leafValues></_></weakClassifiers></_>
    <!-- stage 14 -->
    <_>
      <maxWeakCount>5</maxWeakCount>
      <stageThreshold>-1.1936537027359009e+00</stageThreshold>
      <weakClassifiers>
        <_>
          <internalNodes>
            0 -1 51 -352495905 -1146023501 -1172287239 -1622834367
            737742603 -1149205583 -526214149 -4478623</internalNodes>
          <leafValues>
            -7.3884660005569458e-01 5.7493650913238525e-01</leafValues></_>
        <_>
          <internalNodes>
            0 -1 8 1728016463 -541081261 -1336815053 -139492938
            279553879 1888027064 -728917761 -3157537</internalNodes>
          <leafValues>
            -7.2936058044433594e-01 4.8724091053009033e-01</leafValues></_>
        <_>
          <internalNodes>
            0 -1 73 -19925246 -448560615 -1736395646 -52591425 -29104105
            -1962835929 780918951 -203457537</internalNodes>
          <leafValues>
            -7.2846162319183350e-01 4.9892199039459229e-01</leafValues></_>
        <_>
          <internalNodes>
            0 -1 48 -650392617 -610975616 299484 -385104125 -385251160
            1515717260 42109083 189750239</internalNodes>
          <leafValues>
            -6.3753569126129150e-01 6.2537300586700439e-01</leafValues></_>
        <_>
          <internalNodes>
            0 -1 69 -640469530 1074295651 -1877929742 1880201619
            -1733788709 -1266220885 -236414219 -205799265</internalNodes>
          <leafValues>
            -8.6227601766586304e-01 4.2394927144050598e-01</leafValues></_></weakClassifiers></_>
    <!-- stage 15 -->
    <_>
      <maxWeakCount>5</maxWeakCount>
      <stageThreshold>-9.9438405036926270e-01</stageThreshold>
      <weakClassifiers>
        <_>
          <internalNodes>
            0 -1 56 -202113074 -656734968 -788037613 -668270591
            -708595457 -116719359 -795930085 -186939253</internalNodes>
          <leafValues>
            -7.6635515689849854e-01 5.2733117341995239e-01</leafValues></_>
        <_>
          <internalNodes>
            0 -1 40 -654272167 -648590959 -1879025187 -585773897
            -1492934527 -326598008 413141144 -1076131607</internalNodes>
          <leafValues>
            -6.5523445606231689e-01 6.2708175182342529e-01</leafValues></_>
        <_>
          <internalNodes>
            0 -1 26 -1828465325 -754245357 285349446 -241745315
            -2010400337 -1457289341 -1054827316 -1721972407</internalNodes>
          <leafValues>
            -7.6242405176162720e-01 5.0058960914611816e-01</leafValues></_>
        <_>
          <internalNodes>
            0 -1 29 -472914141 -108952950 -780054025 -780050299
            1078026595 -1830666110 1384239315 -607395185</internalNodes>
          <leafValues>
            -6.1381608247756958e-01 6.3326483964920044e-01</leafValues></_>
        <_>
          <internalNodes>
            0 -1 20 -293413705 -788426367 2102464789 829526047
            -376837657 -1585346530 2047396799 -560971771</internalNodes>
          <leafValues>
            -7.0664888620376587e-01 5.4316020011901855e-01</leafValues></_></weakClassifiers></_>
    <!-- stage 16 -->
    <_>
      <maxWeakCount>5</maxWeakCount>
      <stageThreshold>-8.5442698001861572e-01</stageThreshold>
      <weakClassifiers>
        <_>
          <internalNodes>
            0 -1 58 -87470849 1539835043 -2063581035 435532880
            1929382079 -1417541439 -1148712825 -74745717</internalNodes>
          <leafValues>
            -7.9201936721801758e-01 5.1453262567520142e-01</leafValues></_>
        <_>
          <internalNodes>
            0 -1 36 256889727 -1324808178 -912029383 -648083061
            671776920 -1987444596 -502955509 -85392632</internalNodes>
          <leafValues>
            -6.3013237714767456e-01 5.9985059499740601e-01</leafValues></_>
        <_>
          <internalNodes>
            0 -1 41 368320753 1006534127 2113230201 1073231529
            -1107530755 -42140420 1073574079 -653498232</internalNodes>
          <leafValues>
            -5.1284205913543701e-01 7.1826517581939697e-01</leafValues></_>
        <_>
          <internalNodes>
            0 -1 25 -246164786 -133824189 939627090 1951654195
            -1667006463 -1202617592 -1433149019 -167773517</internalNodes>
          <leafValues>
            -7.1994334459304810e-01 5.3233110904693604e-01</leafValues></_>
        <_>
          <internalNodes>
            0 -1 64 -653689001 -788487424 -2130329455 806146433
            -519658808 -2004834045 1930011099 1619119043</internalNodes>
          <leafValues>
            -6.8174731731414795e-01 5.4968041181564331e-01</leafValues></_></weakClassifiers></_>
    <!-- stage 17 -->
    <_>
      <maxWeakCount>5</maxWeakCount>
      <stageThreshold>-1.0330563783645630e+00</stageThreshold>
      <weakClassifiers>
        <_>
          <internalNodes>
            0 -1 65 -804135529 -115638256 4800733 -549081088 34636719
            -1433731007 950403323 -605447920</internalNodes>
          <leafValues>
            -7.2266066074371338e-01 5.2844190597534180e-01</leafValues></_>
        <_>
          <internalNodes>
            0 -1 0 -968831830 -78412798 -771751670 -950530816
            -1744644480 -612216442 22593735 -284474877</internalNodes>
          <leafValues>
            -6.7039418220520020e-01 5.3465151786804199e-01</leafValues></_>
        <_>
          <internalNodes>
            0 -1 52 -745549417 -576564796 403406927 -615276522 -55475058
            219676810 -1564243462 668197619</internalNodes>
          <leafValues>
            -6.2011086940765381e-01 5.8542108535766602e-01</leafValues></_>
        <_>
          <internalNodes>
            0 -1 66 1204813807 1786855689 1426217471 -230325952
            2064365599 2072543520 -1853701751 -322055493</internalNodes>
          <leafValues>
            -7.7185851335525513e-01 4.7517749667167664e-01</leafValues></_>
        <_>
          <internalNodes>
            0 -1 21 -1824403081 -1660943987 9257235 289489040 1074053243
            -124223352 -1987540921 -101939128</internalNodes>
          <leafValues>
            -6.7814290523529053e-01 5.0493174791336060e-01</leafValues></_></weakClassifiers></_>
    <!-- stage 18 -->
    <_>
      <maxWeakCount>5</maxWeakCount>
      <stageThreshold>-1.6699291467666626e+00</stageThreshold>
      <weakClassifiers>
        <_>
          <internalNodes>
            0 -1 33 -17 -67108945 -137 1005006639 -1 -524289 -1
            -93194241</internalNodes>
          <leafValues>
            -6.1121493577957153e-01 6.3495147228240967e-01</leafValues></_>
        <_>
          <internalNodes>
            0 -1 35 -2130476664 1359102208 -2147483355 -2130608111
            -1584690808 -1450213246 -1794104613 -618950229</internalNodes>
          <leafValues>
            -5.2676725387573242e-01 7.7261400222778320e-01</leafValues></_>
        <_>
          <internalNodes>
            0 -1 70 -777534640 -1056881662 1073741824 -1073725440
            -1073739776 -2013200384 1073954866 -234758098</internalNodes>
          <leafValues>
            -6.0724145174026489e-01 6.4409756660461426e-01</leafValues></_>
        <_>
          <internalNodes>
            0 -1 55 -512248617 -1694498800 49564 -1692711928 -1039990610
            404258960 -2147303031 734494927</internalNodes>
          <leafValues>
            -6.2983947992324829e-01 6.0988807678222656e-01</leafValues></_>
        <_>
          <internalNodes>
            0 -1 18 -223359813 -67375876 -1895846865 -315904968
            -1887468374 -1073746842 251601835 -1879817070</internalNodes>
          <leafValues>
            -5.9424728155136108e-01 6.7642647027969360e-01</leafValues></_></weakClassifiers></_>
    <!-- stage 19 -->
    <_>
      <maxWeakCount>5</maxWeakCount>
      <stageThreshold>-3.9654555916786194e-01</stageThreshold>
      <weakClassifiers>
        <_>
          <internalNodes>
            0 -1 54 -134744315 1194262502 -1 -393218 -133251 1199568766
            -133123 -683872273</internalNodes>
          <leafValues>
            -5.9738135337829590e-01 8.3143508434295654e-01</leafValues></_>
        <_>
          <internalNodes>
            0 -1 16 536870928 1342177360 4194320 13631488 134236297
            -1715469696 1074299016 -1417510782</internalNodes>
          <leafValues>
            -6.8989562988281250e-01 6.8587768077850342e-01</leafValues></_>
        <_>
          <internalNodes>
            0 -1 31 2033505365 2146279159 -1342264283 -1619316959
            89459849 -1923854140 72646784 -1929543015</internalNodes>
          <leafValues>
            -5.3843241930007935e-01 9.3585062026977539e-01</leafValues></_>
        <_>
          <internalNodes>
            0 -1 38 -1 -1025 -16777242 -269484033 -268443704 -10616882
            1608474052 118746697</internalNodes>
          <leafValues>
            -6.7886221408843994e-01 7.0192682743072510e-01</leafValues></_>
        <_>
          <internalNodes>
            0 -1 27 4371 285212672 16843282 -1055850496 -1593273694
            -2130673656 -2130672935 -2146828279</internalNodes>
          <leafValues>
            -6.4853632450103760e-01 7.6627618074417114e-01</leafValues></_></weakClassifiers></_></stages>
  <features>
    <_>
      <rect>
        0 0 3 1</rect></_>
    <_>
      <rect>
        0 0 8 6</rect></_>
    <_>
      <rect>
        0 1 1 5</rect></_>
    <_>
      <rect>
        0 1 4 3</rect></_>
    <_>
      <rect>
        0 1 6 4</rect></_>
    <_>
      <rect>
        0 3 1 3</rect></_>
    <_>
      <rect>
        0 3 8 2</rect></_>
    <_>
      <rect>
        0 5 3 3</rect></_>
    <_>
      <rect>
        0 6 2 2</rect></_>
    <_>
      <rect>
        0 9 1 2</rect></_>
    <_>
      <rect>
        0 9 2 2</rect></_>
    <_>
      <rect>
        0 14 4 3</rect></_>
    <_>
      <rect>
        0 14 5 2</rect></_>
    <_>
      <rect>
        0 14 8 3</rect></_>
    <_>
      <rect>
        0 15 5 3</rect></_>
    <_>
      <rect>
        0 16 4 2</rect></_>
    <_>
      <rect>
        0 21 3 1</rect></_>
    <_>
      <rect>
        1 0 2 6</rect></_>
    <_>
      <rect>
        1 0 3 2</rect></_>
    <_>
      <rect>
        1 0 5 4</rect></_>
    <_>
      <rect>
        1 2 5 2</rect></_>
    <_>
      <rect>
        1 3 4 2</rect></_>
    <_>
      <rect>
        1 4 1 4</rect></_>
    <_>
      <rect>
        1 4 7 2</rect></_>
    <_>
      <rect>
        1 4 7 3</rect></_>
    <_>
      <rect>
        1 10 1 2</rect></_>
    <_>
      <rect>
        1 10 4 4</rect></_>
    <_>
      <rect>
        1 13 4 2</rect></_>
    <_>
      <rect>
        2 0 2 6</rect></_>
    <_>
      <rect>
        2 6 1 2</rect></_>
    <_>
      <rect>
        2 10 4 4</rect></_>
    <_>
      <rect>
        3 1 3 1</rect></_>
    <_>
      <rect>
        3 3 5 3</rect></_>
    <_>
      <rect>
        3 4 4 3</rect></_>
    <_>
      <rect>
        3 4 7 3</rect></_>
    <_>
      <rect>
        3 14 5 3</rect></_>
    <_>
      <rect>
        4 1 5 6</rect></_>
    <_>
      <rect>
        5 1 3 5</rect></_>
    <_>
      <rect>
        5 11 3 3</rect></_>
    <_>
      <rect>
        6 0 4 6</rect></_>
    <_>
      <rect>
        6 18 6 2</rect></_>
    <_>
      <rect>
        6 21 5 1</rect></_>
    <_>
      <rect>
        7 0 2 4</rect></_>
    <_>
      <rect>
        7 7 3 3</rect></_>
    <_>
      <rect>
        7 7 3 4</rect></_>
    <_>
      <rect>
        8 2 3 3</rect></_>
    <_>
      <rect>
        8 2 5 2</rect></_>
    <_>
      <rect>
        8 7 2 3</rect></_>
    <_>
      <rect>
        8 13 3 3</rect></_>
    <_>
      <rect>
        9 0 5 3</rect></_>
    <_>
      <rect>
        9 1 5 3</rect></_>
    <_>
      <rect>
        9 4 5 2</rect></_>
    <_>
      <rect>
        9 11 2 3</rect></_>
    <_>
      <rect>
        9 15 5 3</rect></_>
    <_>
      <rect>
        10 7 1 2</rect></_>
    <_>
      <rect>
        10 12 2 3</rect></_>
    <_>
      <rect>
        11 2 4 6</rect></_>
    <_>
      <rect>
        11 4 3 4</rect></_>
    <_>
      <rect>
        12 0 4 3</rect></_>
    <_>
      <rect>
        12 1 4 4</rect></_>
    <_>
      <rect>
        12 5 4 3</rect></_>
    <_>
      <rect>
        12 13 4 3</rect></_>
    <_>
      <rect>
        12 15 4 2</rect></_>
    <_>
      <rect>
        14 0 3 7</rect></_>
    <_>
      <rect>
        14 1 1 3</rect></_>
    <_>
      <rect>
        15 15 3 3</rect></_>
    <_>
      <rect>
        16 6 2 2</rect></_>
    <_>
      <rect>
        16 6 2 3</rect></_>
    <_>
      <rect>
        17 3 2 3</rect></_>
    <_>
      <rect>
        18 9 2 2</rect></_>
    <_>
      <rect>
        20 0 1 2</rect></_>
    <_>
      <rect>
        20 3 1 4</rect></_>
    <_>
      <rect>
        20 9 1 3</rect></_>
    <_>
      <rect>
        21 7 1 2</rect></_>
    <_>
      <rect>
        21 8 1 4</rect></_></features></cascade>
</opencv_storage>
