<?xml version="1.0"?>
<opencv_storage>
<stage12>
  <maxWeakCount>5</maxWeakCount>
  <stageThreshold>-1.1415454149246216e+00</stageThreshold>
  <weakClassifiers>
    <_>
      <internalNodes>
        0 -1 7106 -153747465 -1627914345 -264437749 -662503421
        -187715441 1996480522 -66379777 -50331649</internalNodes>
      <leafValues>
        -6.3720071315765381e-01 6.8244576454162598e-01</leafValues></_>
    <_>
      <internalNodes>
        0 -1 5026 -201588897 -876352517 1828950395 -6600499 -702684860
        1467716139 -360015621 -1770676</internalNodes>
      <leafValues>
        -6.6403073072433472e-01 6.3788014650344849e-01</leafValues></_>
    <_>
      <internalNodes>
        0 -1 942 -320871934 -129513449 -1859399459 -214843237 1885532791
        -928481142 -233331973 -219159821</internalNodes>
      <leafValues>
        -7.7481639385223389e-01 5.1648646593093872e-01</leafValues></_>
    <_>
      <internalNodes>
        0 -1 1829 -245893121 -785055734 -2130550606 -2130193773
        -352204579 -351564895 -914301555 -930297011</internalNodes>
      <leafValues>
        -7.8195405006408691e-01 4.7618448734283447e-01</leafValues></_>
    <_>
      <internalNodes>
        0 -1 2208 -1427125057 -1668742059 85040407 667092103 -117415475
        -398457726 -913716086 -685389115</internalNodes>
      <leafValues>
        -8.4359294176101685e-01 4.6203482151031494e-01</leafValues></_></weakClassifiers></stage12>
</opencv_storage>
