<?xml version="1.0"?>
<opencv_storage>
<stage9>
  <maxWeakCount>4</maxWeakCount>
  <stageThreshold>-4.3613630533218384e-01</stageThreshold>
  <weakClassifiers>
    <_>
      <internalNodes>
        0 -1 87 -1074790601 -1113653083 -1793519085 -1760463853
        970518759 -39612264 2055272479 -69218417</internalNodes>
      <leafValues>
        -7.3637264966964722e-01 6.8102657794952393e-01</leafValues></_>
    <_>
      <internalNodes>
        0 -1 226 -773983234 -607424039 -2130665202 -681878779 -149376549
        -71226994 621298667 -5262369</internalNodes>
      <leafValues>
        -7.4034357070922852e-01 6.4877462387084961e-01</leafValues></_>
    <_>
      <internalNodes>
        0 -1 771 -1343750153 -572526241 -49947177 -1252586479 998496663
        -1232795431 1887827574 -204220329</internalNodes>
      <leafValues>
        -8.8213098049163818e-01 5.1290917396545410e-01</leafValues></_>
    <_>
      <internalNodes>
        0 -1 7873 587198383 668308611 1286330775 1228002369 1149365167
        983474202 1300884443 -337904965</internalNodes>
      <leafValues>
        -8.0352789163589478e-01 5.3359270095825195e-01</leafValues></_></weakClassifiers></stage9>
</opencv_storage>
