<?xml version="1.0"?>
<opencv_storage>
<stage8>
  <maxWeakCount>4</maxWeakCount>
  <stageThreshold>-5.3038525581359863e-01</stageThreshold>
  <weakClassifiers>
    <_>
      <internalNodes>
        0 -1 4888 -203727777 1966466139 -904805121 -572964711
        -1459568433 -119701335 -90535685 -7632449</internalNodes>
      <leafValues>
        -7.7342945337295532e-01 6.6519045829772949e-01</leafValues></_>
    <_>
      <internalNodes>
        0 -1 462 -10485778 -677391921 1616099446 -254045474 -1023152125
        1996718822 -208424473 -139464533</internalNodes>
      <leafValues>
        -8.2858240604400635e-01 5.8007109165191650e-01</leafValues></_>
    <_>
      <internalNodes>
        0 -1 654 -243269637 -14958346 -12536429 1001261466 -343766902
        -1412708086 -1343444786 -1360090133</internalNodes>
      <leafValues>
        -8.5146808624267578e-01 5.4118931293487549e-01</leafValues></_>
    <_>
      <internalNodes>
        0 -1 6203 -69209366 -790519613 -775696898 -23694782 -217070617
        -234020860 -1466580993 -18550424</internalNodes>
      <leafValues>
        -8.6876553297042847e-01 5.3043729066848755e-01</leafValues></_></weakClassifiers></stage8>
</opencv_storage>
