<?xml version="1.0"?>
<opencv_storage>
<!-- Automatically converted from 2.4/result_haar_25_997_5/, window size = 24x24 -->
<cascade type_id="opencv-haar-classifier">
  <size>
    24 24</size>
  <stages>
    <_>
      <!-- stage 0 -->
      <trees>
        <_>
          <!-- tree 0 -->
          <_>
            <!-- root node -->
            <feature>
              <rects>
                <_>
                  0 1 24 21 -1.</_>
                <_>
                  0 8 24 7 3.</_></rects>
              <tilted>0</tilted></feature>
            <threshold>3.4597331285476685e-01</threshold>
            <left_val>-9.5692771673202515e-01</left_val>
            <right_val>7.6459819078445435e-01</right_val></_></_>
        <_>
          <!-- tree 1 -->
          <_>
            <!-- root node -->
            <feature>
              <rects>
                <_>
                  9 4 14 8 -1.</_>
                <_>
                  16 4 7 4 2.</_>
                <_>
                  9 8 7 4 2.</_></rects>
              <tilted>0</tilted></feature>
            <threshold>-2.4137899279594421e-02</threshold>
            <left_val>5.9501892328262329e-01</left_val>
            <right_val>-7.3572659492492676e-01</right_val></_></_>
        <_>
          <!-- tree 2 -->
          <_>
            <!-- root node -->
            <feature>
              <rects>
                <_>
                  0 13 23 8 -1.</_>
                <_>
                  0 17 23 4 2.</_></rects>
              <tilted>0</tilted></feature>
            <threshold>-8.0723807215690613e-02</threshold>
            <left_val>5.2140039205551147e-01</left_val>
            <right_val>-9.3019187450408936e-01</right_val></_></_></trees>
      <stage_threshold>-1.1712540388107300e+00</stage_threshold>
      <parent>-1</parent>
      <next>-1</next></_>
    <_>
      <!-- stage 1 -->
      <trees>
        <_>
          <!-- tree 0 -->
          <_>
            <!-- root node -->
            <feature>
              <rects>
                <_>
                  0 3 8 10 -1.</_>
                <_>
                  0 8 8 5 2.</_></rects>
              <tilted>0</tilted></feature>
            <threshold>4.1980661451816559e-02</threshold>
            <left_val>-9.1890662908554077e-01</left_val>
            <right_val>5.2722471952438354e-01</right_val></_></_>
        <_>
          <!-- tree 1 -->
          <_>
            <!-- root node -->
            <feature>
              <rects>
                <_>
                  14 5 9 5 -1.</_>
                <_>
                  17 5 3 5 3.</_></rects>
              <tilted>0</tilted></feature>
            <threshold>-1.9608989357948303e-02</threshold>
            <left_val>6.7996221780776978e-01</left_val>
            <right_val>-6.4017468690872192e-01</right_val></_></_>
        <_>
          <!-- tree 2 -->
          <_>
            <!-- root node -->
            <feature>
              <rects>
                <_>
                  1 13 12 6 -1.</_>
                <_>
                  1 13 6 3 2.</_>
                <_>
                  7 16 6 3 2.</_></rects>
              <tilted>0</tilted></feature>
            <threshold>1.3511599972844124e-02</threshold>
            <left_val>-5.8832752704620361e-01</left_val>
            <right_val>5.5517309904098511e-01</right_val></_></_>
        <_>
          <!-- tree 3 -->
          <_>
            <!-- root node -->
            <feature>
              <rects>
                <_>
                  0 3 24 16 -1.</_>
                <_>
                  8 3 8 16 3.</_></rects>
              <tilted>0</tilted></feature>
            <threshold>2.4633589386940002e-01</threshold>
            <left_val>-4.5863929390907288e-01</left_val>
            <right_val>7.8783828020095825e-01</right_val></_></_>
        <_>
          <!-- tree 4 -->
          <_>
            <!-- root node -->
            <feature>
              <rects>
                <_>
                  0 8 23 16 -1.</_>
                <_>
                  0 16 23 8 2.</_></rects>
              <tilted>0</tilted></feature>
            <threshold>-1.9376780092716217e-01</threshold>
            <left_val>3.7829178571701050e-01</left_val>
            <right_val>-9.0692961215972900e-01</right_val></_></_></trees>
      <stage_threshold>-1.0842560529708862e+00</stage_threshold>
      <parent>0</parent>
      <next>-1</next></_>
    <_>
      <!-- stage 2 -->
      <trees>
        <_>
          <!-- tree 0 -->
          <_>
            <!-- root node -->
            <feature>
              <rects>
                <_>
                  1 4 14 8 -1.</_>
                <_>
                  1 4 7 4 2.</_>
                <_>
                  8 8 7 4 2.</_></rects>
              <tilted>0</tilted></feature>
            <threshold>-2.5075869634747505e-02</threshold>
            <left_val>5.8442831039428711e-01</left_val>
            <right_val>-7.2126162052154541e-01</right_val></_></_>
        <_>
          <!-- tree 1 -->
          <_>
            <!-- root node -->
            <feature>
              <rects>
                <_>
                  0 4 24 6 -1.</_>
                <_>
                  0 7 24 3 2.</_></rects>
              <tilted>0</tilted></feature>
            <threshold>5.4679889231920242e-02</threshold>
            <left_val>-8.8190859556198120e-01</left_val>
            <right_val>4.0049868822097778e-01</right_val></_></_>
        <_>
          <!-- tree 2 -->
          <_>
            <!-- root node -->
            <feature>
              <rects>
                <_>
                  1 4 9 7 -1.</_>
                <_>
                  4 4 3 7 3.</_></rects>
              <tilted>0</tilted></feature>
            <threshold>-2.4193340912461281e-02</threshold>
            <left_val>6.4707797765731812e-01</left_val>
            <right_val>-5.2928048372268677e-01</right_val></_></_>
        <_>
          <!-- tree 3 -->
          <_>
            <!-- root node -->
            <feature>
              <rects>
                <_>
                  10 9 4 8 -1.</_>
                <_>
                  10 13 4 4 2.</_></rects>
              <tilted>0</tilted></feature>
            <threshold>-3.0038950499147177e-03</threshold>
            <left_val>-8.3717012405395508e-01</left_val>
            <right_val>4.1358190774917603e-01</right_val></_></_>
        <_>
          <!-- tree 4 -->
          <_>
            <!-- root node -->
            <feature>
              <rects>
                <_>
                  0 3 21 17 -1.</_>
                <_>
                  7 3 7 17 3.</_></rects>
              <tilted>0</tilted></feature>
            <threshold>1.7412729561328888e-01</threshold>
            <left_val>-5.1696997880935669e-01</left_val>
            <right_val>5.5513322353363037e-01</right_val></_></_>
        <_>
          <!-- tree 5 -->
          <_>
            <!-- root node -->
            <feature>
              <rects>
                <_>
                  0 10 24 6 -1.</_>
                <_>
                  8 10 8 6 3.</_></rects>
              <tilted>0</tilted></feature>
            <threshold>-1.5991739928722382e-01</threshold>
            <left_val>8.7226498126983643e-01</left_val>
            <right_val>-3.4138339757919312e-01</right_val></_></_></trees>
      <stage_threshold>-1.4734640121459961e+00</stage_threshold>
      <parent>1</parent>
      <next>-1</next></_>
    <_>
      <!-- stage 3 -->
      <trees>
        <_>
          <!-- tree 0 -->
          <_>
            <!-- root node -->
            <feature>
              <rects>
                <_>
                  1 8 22 6 -1.</_>
                <_>
                  1 10 22 2 3.</_></rects>
              <tilted>0</tilted></feature>
            <threshold>1.5631919959560037e-03</threshold>
            <left_val>-9.7012871503829956e-01</left_val>
            <right_val>3.9836791157722473e-01</right_val></_></_>
        <_>
          <!-- tree 1 -->
          <_>
            <!-- root node -->
            <feature>
              <rects>
                <_>
                  17 7 6 11 -1.</_>
                <_>
                  19 7 2 11 3.</_></rects>
              <tilted>0</tilted></feature>
            <threshold>-4.0089730173349380e-02</threshold>
            <left_val>8.7895578145980835e-01</left_val>
            <right_val>-5.5402600765228271e-01</right_val></_></_>
        <_>
          <!-- tree 2 -->
          <_>
            <!-- root node -->
            <feature>
              <rects>
                <_>
                  0 9 23 9 -1.</_>
                <_>
                  0 12 23 3 3.</_></rects>
              <tilted>0</tilted></feature>
            <threshold>2.6832379400730133e-02</threshold>
            <left_val>-9.5209032297134399e-01</left_val>
            <right_val>5.1766461133956909e-01</right_val></_></_>
        <_>
          <!-- tree 3 -->
          <_>
            <!-- root node -->
            <feature>
              <rects>
                <_>
                  1 3 23 12 -1.</_>
                <_>
                  1 7 23 4 3.</_></rects>
              <tilted>0</tilted></feature>
            <threshold>5.9039980173110962e-02</threshold>
            <left_val>-8.9029377698898315e-01</left_val>
            <right_val>2.6530119776725769e-01</right_val></_></_>
        <_>
          <!-- tree 4 -->
          <_>
            <!-- root node -->
            <feature>
              <rects>
                <_>
                  1 13 14 4 -1.</_>
                <_>
                  1 13 7 2 2.</_>
                <_>
                  8 15 7 2 2.</_></rects>
              <tilted>0</tilted></feature>
            <threshold>5.2034051623195410e-04</threshold>
            <left_val>-9.4078677892684937e-01</left_val>
            <right_val>2.4767440557479858e-01</right_val></_></_>
        <_>
          <!-- tree 5 -->
          <_>
            <!-- root node -->
            <feature>
              <rects>
                <_>
                  0 13 24 8 -1.</_>
                <_>
                  0 17 24 4 2.</_></rects>
              <tilted>0</tilted></feature>
            <threshold>-8.4477983415126801e-02</threshold>
            <left_val>1.2444020062685013e-01</left_val>
            <right_val>-9.7666329145431519e-01</right_val></_></_>
        <_>
          <!-- tree 6 -->
          <_>
            <!-- root node -->
            <feature>
              <rects>
                <_>
                  0 9 23 6 -1.</_>
                <_>
                  0 11 23 2 3.</_></rects>
              <tilted>0</tilted></feature>
            <threshold>3.2493099570274353e-03</threshold>
            <left_val>-9.5291221141815186e-01</left_val>
            <right_val>2.2925710678100586e-01</right_val></_></_></trees>
      <stage_threshold>-1.1521500349044800e+00</stage_threshold>
      <parent>2</parent>
      <next>-1</next></_>
    <_>
      <!-- stage 4 -->
      <trees>
        <_>
          <!-- tree 0 -->
          <_>
            <!-- root node -->
            <feature>
              <rects>
                <_>
                  0 4 22 9 -1.</_>
                <_>
                  0 7 22 3 3.</_></rects>
              <tilted>0</tilted></feature>
            <threshold>8.2629098324105144e-04</threshold>
            <left_val>-9.2260807752609253e-01</left_val>
            <right_val>5.0540971755981445e-01</right_val></_></_>
        <_>
          <!-- tree 1 -->
          <_>
            <!-- root node -->
            <feature>
              <rects>
                <_>
                  11 4 2 6 -1.</_>
                <_>
                  11 7 2 3 2.</_></rects>
              <tilted>0</tilted></feature>
            <threshold>-2.0708139345515519e-05</threshold>
            <left_val>6.7712730169296265e-01</left_val>
            <right_val>-7.7964848279953003e-01</right_val></_></_>
        <_>
          <!-- tree 2 -->
          <_>
            <!-- root node -->
            <feature>
              <rects>
                <_>
                  1 0 22 20 -1.</_>
                <_>
                  1 10 22 10 2.</_></rects>
              <tilted>0</tilted></feature>
            <threshold>1.8649630248546600e-02</threshold>
            <left_val>-9.5500051975250244e-01</left_val>
            <right_val>3.7941628694534302e-01</right_val></_></_>
        <_>
          <!-- tree 3 -->
          <_>
            <!-- root node -->
            <feature>
              <rects>
                <_>
                  8 7 16 6 -1.</_>
                <_>
                  16 7 8 3 2.</_>
                <_>
                  8 10 8 3 2.</_></rects>
              <tilted>0</tilted></feature>
            <threshold>-5.7192348322132602e-05</threshold>
            <left_val>2.6396659016609192e-01</left_val>
            <right_val>-8.4693211317062378e-01</right_val></_></_>
        <_>
          <!-- tree 4 -->
          <_>
            <!-- root node -->
            <feature>
              <rects>
                <_>
                  2 7 20 6 -1.</_>
                <_>
                  2 9 20 2 3.</_></rects>
              <tilted>0</tilted></feature>
            <threshold>1.2839749979320914e-04</threshold>
            <left_val>-9.6079289913177490e-01</left_val>
            <right_val>2.4814869463443756e-01</right_val></_></_>
        <_>
          <!-- tree 5 -->
          <_>
            <!-- root node -->
            <feature>
              <rects>
                <_>
                  17 6 6 9 -1.</_>
                <_>
                  19 6 2 9 3.</_></rects>
              <tilted>0</tilted></feature>
            <threshold>3.7818688899278641e-02</threshold>
            <left_val>-4.8041820526123047e-01</left_val>
            <right_val>9.1805732250213623e-01</right_val></_></_>
        <_>
          <!-- tree 6 -->
          <_>
            <!-- root node -->
            <feature>
              <rects>
                <_>
                  1 10 22 9 -1.</_>
                <_>
                  1 13 22 3 3.</_></rects>
              <tilted>0</tilted></feature>
            <threshold>2.4872409179806709e-02</threshold>
            <left_val>-9.7254818677902222e-01</left_val>
            <right_val>4.4431498646736145e-01</right_val></_></_>
        <_>
          <!-- tree 7 -->
          <_>
            <!-- root node -->
            <feature>
              <rects>
                <_>
                  2 13 21 2 -1.</_>
                <_>
                  2 14 21 1 2.</_></rects>
              <tilted>0</tilted></feature>
            <threshold>-1.3672800378117245e-05</threshold>
            <left_val>1.9124279916286469e-01</left_val>
            <right_val>-9.7840291261672974e-01</right_val></_></_>
        <_>
          <!-- tree 8 -->
          <_>
            <!-- root node -->
            <feature>
              <rects>
                <_>
                  1 7 6 7 -1.</_>
                <_>
                  3 7 2 7 3.</_></rects>
              <tilted>0</tilted></feature>
            <threshold>-2.0965920761227608e-02</threshold>
            <left_val>8.4012967348098755e-01</left_val>
            <right_val>-7.0618247985839844e-01</right_val></_></_>
        <_>
          <!-- tree 9 -->
          <_>
            <!-- root node -->
            <feature>
              <rects>
                <_>
                  9 13 14 4 -1.</_>
                <_>
                  16 13 7 2 2.</_>
                <_>
                  9 15 7 2 2.</_></rects>
              <tilted>0</tilted></feature>
            <threshold>4.9011490773409605e-04</threshold>
            <left_val>-8.9631062746047974e-01</left_val>
            <right_val>5.1788121461868286e-01</right_val></_></_>
        <_>
          <!-- tree 10 -->
          <_>
            <!-- root node -->
            <feature>
              <rects>
                <_>
                  0 11 4 3 -1.</_>
                <_>
                  2 11 2 3 2.</_></rects>
              <tilted>0</tilted></feature>
            <threshold>8.1393457949161530e-03</threshold>
            <left_val>-7.6975762844085693e-01</left_val>
            <right_val>8.1050252914428711e-01</right_val></_></_>
        <_>
          <!-- tree 11 -->
          <_>
            <!-- root node -->
            <feature>
              <rects>
                <_>
                  5 10 19 6 -1.</_>
                <_>
                  5 12 19 2 3.</_></rects>
              <tilted>0</tilted></feature>
            <threshold>3.9381868555210531e-04</threshold>
            <left_val>-9.7879290580749512e-01</left_val>
            <right_val>4.5418089628219604e-01</right_val></_></_>
        <_>
          <!-- tree 12 -->
          <_>
            <!-- root node -->
            <feature>
              <rects>
                <_>
                  0 9 6 7 -1.</_>
                <_>
                  2 9 2 7 3.</_></rects>
              <tilted>0</tilted></feature>
            <threshold>-1.9446749240159988e-02</threshold>
            <left_val>8.5685151815414429e-01</left_val>
            <right_val>-9.3273407220840454e-01</right_val></_></_></trees>
      <stage_threshold>-1.7548270225524902e+00</stage_threshold>
      <parent>3</parent>
      <next>-1</next></_>
    <_>
      <!-- stage 5 -->
      <trees>
        <_>
          <!-- tree 0 -->
          <_>
            <!-- root node -->
            <feature>
              <rects>
                <_>
                  0 5 22 9 -1.</_>
                <_>
                  0 8 22 3 3.</_></rects>
              <tilted>0</tilted></feature>
            <threshold>2.1239679772406816e-03</threshold>
            <left_val>-9.9615770578384399e-01</left_val>
            <right_val>8.2370042800903320e-01</right_val></_></_>
        <_>
          <!-- tree 1 -->
          <_>
            <!-- root node -->
            <feature>
              <rects>
                <_>
                  8 5 16 10 -1.</_>
                <_>
                  16 5 8 5 2.</_>
                <_>
                  8 10 8 5 2.</_></rects>
              <tilted>0</tilted></feature>
            <threshold>-7.8618570114485919e-05</threshold>
            <left_val>5.5050897598266602e-01</left_val>
            <right_val>-9.7243952751159668e-01</right_val></_></_>
        <_>
          <!-- tree 2 -->
          <_>
            <!-- root node -->
            <feature>
              <rects>
                <_>
                  0 12 19 6 -1.</_>
                <_>
                  0 14 19 2 3.</_></rects>
              <tilted>0</tilted></feature>
            <threshold>1.4961770502850413e-03</threshold>
            <left_val>-9.8284238576889038e-01</left_val>
            <right_val>3.1377631425857544e-01</right_val></_></_>
        <_>
          <!-- tree 3 -->
          <_>
            <!-- root node -->
            <feature>
              <rects>
                <_>
                  11 9 13 6 -1.</_>
                <_>
                  11 11 13 2 3.</_></rects>
              <tilted>0</tilted></feature>
            <threshold>2.7970969676971436e-04</threshold>
            <left_val>-9.7675400972366333e-01</left_val>
            <right_val>1.1156400293111801e-01</right_val></_></_>
        <_>
          <!-- tree 4 -->
          <_>
            <!-- root node -->
            <feature>
              <rects>
                <_>
                  0 9 13 6 -1.</_>
                <_>
                  0 11 13 2 3.</_></rects>
              <tilted>0</tilted></feature>
            <threshold>1.0924079688265920e-03</threshold>
            <left_val>-9.9024522304534912e-01</left_val>
            <right_val>2.7848440408706665e-01</right_val></_></_>
        <_>
          <!-- tree 5 -->
          <_>
            <!-- root node -->
            <feature>
              <rects>
                <_>
                  6 6 16 6 -1.</_>
                <_>
                  14 6 8 3 2.</_>
                <_>
                  6 9 8 3 2.</_></rects>
              <tilted>0</tilted></feature>
            <threshold>-4.6282370021799579e-05</threshold>
            <left_val>7.3250532150268555e-02</left_val>
            <right_val>-9.4935160875320435e-01</right_val></_></_>
        <_>
          <!-- tree 6 -->
          <_>
            <!-- root node -->
            <feature>
              <rects>
                <_>
                  4 6 14 6 -1.</_>
                <_>
                  4 6 7 3 2.</_>
                <_>
                  11 9 7 3 2.</_></rects>
              <tilted>0</tilted></feature>
            <threshold>-4.3640138756018132e-05</threshold>
            <left_val>5.1005607843399048e-01</left_val>
            <right_val>-9.4477307796478271e-01</right_val></_></_></trees>
      <stage_threshold>-1.1808290481567383e+00</stage_threshold>
      <parent>4</parent>
      <next>-1</next></_>
    <_>
      <!-- stage 6 -->
      <trees>
        <_>
          <!-- tree 0 -->
          <_>
            <!-- root node -->
            <feature>
              <rects>
                <_>
                  9 13 5 6 -1.</_>
                <_>
                  9 16 5 3 2.</_></rects>
              <tilted>0</tilted></feature>
            <threshold>-1.4283769996836782e-03</threshold>
            <left_val>-6.8287897109985352e-01</left_val>
            <right_val>5.4275357723236084e-01</right_val></_></_>
        <_>
          <!-- tree 1 -->
          <_>
            <!-- root node -->
            <feature>
              <rects>
                <_>
                  0 4 24 16 -1.</_>
                <_>
                  8 4 8 16 3.</_></rects>
              <tilted>0</tilted></feature>
            <threshold>2.7757030725479126e-01</threshold>
            <left_val>-4.6199178695678711e-01</left_val>
            <right_val>5.8404451608657837e-01</right_val></_></_>
        <_>
          <!-- tree 2 -->
          <_>
            <!-- root node -->
            <feature>
              <rects>
                <_>
                  1 6 6 13 -1.</_>
                <_>
                  3 6 2 13 3.</_></rects>
              <tilted>0</tilted></feature>
            <threshold>-5.2553419023752213e-02</threshold>
            <left_val>7.4845170974731445e-01</left_val>
            <right_val>-3.1178110837936401e-01</right_val></_></_>
        <_>
          <!-- tree 3 -->
          <_>
            <!-- root node -->
            <feature>
              <rects>
                <_>
                  18 8 6 5 -1.</_>
                <_>
                  20 8 2 5 3.</_></rects>
              <tilted>0</tilted></feature>
            <threshold>2.4125160649418831e-02</threshold>
            <left_val>-3.4729409217834473e-01</left_val>
            <right_val>7.8290969133377075e-01</right_val></_></_>
        <_>
          <!-- tree 4 -->
          <_>
            <!-- root node -->
            <feature>
              <rects>
                <_>
                  0 0 9 9 -1.</_>
                <_>
                  0 3 9 3 3.</_></rects>
              <tilted>0</tilted></feature>
            <threshold>-6.5734060481190681e-03</threshold>
            <left_val>2.9512619972229004e-01</left_val>
            <right_val>-8.6584132909774780e-01</right_val></_></_>
        <_>
          <!-- tree 5 -->
          <_>
            <!-- root node -->
            <feature>
              <rects>
                <_>
                  0 14 24 6 -1.</_>
                <_>
                  0 17 24 3 2.</_></rects>
              <tilted>0</tilted></feature>
            <threshold>-6.8106792867183685e-02</threshold>
            <left_val>2.6290750503540039e-01</left_val>
            <right_val>-6.6844177246093750e-01</right_val></_></_>
        <_>
          <!-- tree 6 -->
          <_>
            <!-- root node -->
            <feature>
              <rects>
                <_>
                  0 5 6 9 -1.</_>
                <_>
                  2 5 2 9 3.</_></rects>
              <tilted>0</tilted></feature>
            <threshold>4.6484768390655518e-02</threshold>
            <left_val>-2.6685118675231934e-01</left_val>
            <right_val>8.2399481534957886e-01</right_val></_></_>
        <_>
          <!-- tree 7 -->
          <_>
            <!-- root node -->
            <feature>
              <rects>
                <_>
                  8 11 16 6 -1.</_>
                <_>
                  8 13 16 2 3.</_></rects>
              <tilted>0</tilted></feature>
            <threshold>4.4185869046486914e-04</threshold>
            <left_val>-7.1722787618637085e-01</left_val>
            <right_val>1.9599160552024841e-01</right_val></_></_>
        <_>
          <!-- tree 8 -->
          <_>
            <!-- root node -->
            <feature>
              <rects>
                <_>
                  1 9 3 4 -1.</_>
                <_>
                  2 9 1 4 3.</_></rects>
              <tilted>0</tilted></feature>
            <threshold>-6.9404570385813713e-03</threshold>
            <left_val>7.3209118843078613e-01</left_val>
            <right_val>-3.1051981449127197e-01</right_val></_></_>
        <_>
          <!-- tree 9 -->
          <_>
            <!-- root node -->
            <feature>
              <rects>
                <_>
                  16 11 7 6 -1.</_>
                <_>
                  16 13 7 2 3.</_></rects>
              <tilted>0</tilted></feature>
            <threshold>2.9083190020173788e-04</threshold>
            <left_val>-4.0215259790420532e-01</left_val>
            <right_val>1.1103290319442749e-01</right_val></_></_>
        <_>
          <!-- tree 10 -->
          <_>
            <!-- root node -->
            <feature>
              <rects>
                <_>
                  0 11 16 6 -1.</_>
                <_>
                  0 13 16 2 3.</_></rects>
              <tilted>0</tilted></feature>
            <threshold>9.4412127509713173e-04</threshold>
            <left_val>-8.5952997207641602e-01</left_val>
            <right_val>1.9971589744091034e-01</right_val></_></_></trees>
      <stage_threshold>-1.6969120502471924e+00</stage_threshold>
      <parent>5</parent>
      <next>-1</next></_>
    <_>
      <!-- stage 7 -->
      <trees>
        <_>
          <!-- tree 0 -->
          <_>
            <!-- root node -->
            <feature>
              <rects>
                <_>
                  10 4 4 15 -1.</_>
                <_>
                  10 9 4 5 3.</_></rects>
              <tilted>0</tilted></feature>
            <threshold>2.6729770470410585e-03</threshold>
            <left_val>4.8102301359176636e-01</left_val>
            <right_val>-6.5897858142852783e-01</right_val></_></_>
        <_>
          <!-- tree 1 -->
          <_>
            <!-- root node -->
            <feature>
              <rects>
                <_>
                  8 0 8 8 -1.</_>
                <_>
                  8 4 8 4 2.</_></rects>
              <tilted>0</tilted></feature>
            <threshold>6.3639342784881592e-02</threshold>
            <left_val>-3.7681201100349426e-01</left_val>
            <right_val>6.3070440292358398e-01</right_val></_></_>
        <_>
          <!-- tree 2 -->
          <_>
            <!-- root node -->
            <feature>
              <rects>
                <_>
                  4 3 16 1 -1.</_>
                <_>
                  12 3 8 1 2.</_></rects>
              <tilted>0</tilted></feature>
            <threshold>4.3130139820277691e-03</threshold>
            <left_val>2.6389479637145996e-01</left_val>
            <right_val>-8.7102377414703369e-01</right_val></_></_>
        <_>
          <!-- tree 3 -->
          <_>
            <!-- root node -->
            <feature>
              <rects>
                <_>
                  8 11 8 4 -1.</_>
                <_>
                  8 13 8 2 2.</_></rects>
              <tilted>0</tilted></feature>
            <threshold>1.1368880514055490e-03</threshold>
            <left_val>2.5443419814109802e-01</left_val>
            <right_val>-8.9824998378753662e-01</right_val></_></_>
        <_>
          <!-- tree 4 -->
          <_>
            <!-- root node -->
            <feature>
              <rects>
                <_>
                  8 11 6 4 -1.</_>
                <_>
                  8 13 6 2 2.</_></rects>
              <tilted>0</tilted></feature>
            <threshold>-1.5643429942429066e-03</threshold>
            <left_val>-8.4187442064285278e-01</left_val>
            <right_val>2.7446100115776062e-01</right_val></_></_>
        <_>
          <!-- tree 5 -->
          <_>
            <!-- root node -->
            <feature>
              <rects>
                <_>
                  8 1 10 9 -1.</_>
                <_>
                  8 1 5 9 2.</_></rects>
              <tilted>0</tilted></feature>
            <threshold>-2.1326450631022453e-02</threshold>
            <left_val>-8.5371530055999756e-01</left_val>
            <right_val>-2.1994879469275475e-02</right_val></_></_>
        <_>
          <!-- tree 6 -->
          <_>
            <!-- root node -->
            <feature>
              <rects>
                <_>
                  6 1 10 9 -1.</_>
                <_>
                  11 1 5 9 2.</_></rects>
              <tilted>0</tilted></feature>
            <threshold>-6.4632338471710682e-03</threshold>
            <left_val>-7.7249777317047119e-01</left_val>
            <right_val>2.9666641354560852e-01</right_val></_></_></trees>
      <stage_threshold>-1.1463119983673096e+00</stage_threshold>
      <parent>6</parent>
      <next>-1</next></_>
    <_>
      <!-- stage 8 -->
      <trees>
        <_>
          <!-- tree 0 -->
          <_>
            <!-- root node -->
            <feature>
              <rects>
                <_>
                  9 15 5 4 -1.</_>
                <_>
                  9 17 5 2 2.</_></rects>
              <tilted>0</tilted></feature>
            <threshold>-7.5196800753474236e-04</threshold>
            <left_val>-6.0545068979263306e-01</left_val>
            <right_val>4.6042001247406006e-01</right_val></_></_>
        <_>
          <!-- tree 1 -->
          <_>
            <!-- root node -->
            <feature>
              <rects>
                <_>
                  12 5 6 8 -1.</_>
                <_>
                  14 5 2 8 3.</_></rects>
              <tilted>0</tilted></feature>
            <threshold>1.7635969445109367e-02</threshold>
            <left_val>-4.3451771140098572e-01</left_val>
            <right_val>6.2394767999649048e-01</right_val></_></_>
        <_>
          <!-- tree 2 -->
          <_>
            <!-- root node -->
            <feature>
              <rects>
                <_>
                  3 2 12 1 -1.</_>
                <_>
                  7 2 4 1 3.</_></rects>
              <tilted>0</tilted></feature>
            <threshold>1.5280230436474085e-03</threshold>
            <left_val>2.8166228532791138e-01</left_val>
            <right_val>-7.1841961145401001e-01</right_val></_></_>
        <_>
          <!-- tree 3 -->
          <_>
            <!-- root node -->
            <feature>
              <rects>
                <_>
                  10 8 5 8 -1.</_>
                <_>
                  10 12 5 4 2.</_></rects>
              <tilted>0</tilted></feature>
            <threshold>-4.5298850163817406e-03</threshold>
            <left_val>-8.8186758756637573e-01</left_val>
            <right_val>1.7258040606975555e-01</right_val></_></_>
        <_>
          <!-- tree 4 -->
          <_>
            <!-- root node -->
            <feature>
              <rects>
                <_>
                  10 3 4 20 -1.</_>
                <_>
                  10 13 4 10 2.</_></rects>
              <tilted>0</tilted></feature>
            <threshold>2.3730290122330189e-03</threshold>
            <left_val>2.5913429260253906e-01</left_val>
            <right_val>-7.2824358940124512e-01</right_val></_></_>
        <_>
          <!-- tree 5 -->
          <_>
            <!-- root node -->
            <feature>
              <rects>
                <_>
                  14 5 9 5 -1.</_>
                <_>
                  17 5 3 5 3.</_></rects>
              <tilted>0</tilted></feature>
            <threshold>-2.8492800891399384e-02</threshold>
            <left_val>3.9012029767036438e-01</left_val>
            <right_val>-3.4863978624343872e-01</right_val></_></_>
        <_>
          <!-- tree 6 -->
          <_>
            <!-- root node -->
            <feature>
              <rects>
                <_>
                  2 11 20 2 -1.</_>
                <_>
                  2 11 10 1 2.</_>
                <_>
                  12 12 10 1 2.</_></rects>
              <tilted>0</tilted></feature>
            <threshold>1.6566909616813064e-03</threshold>
            <left_val>1.7475229501724243e-01</left_val>
            <right_val>-8.0651909112930298e-01</right_val></_></_>
        <_>
          <!-- tree 7 -->
          <_>
            <!-- root node -->
            <feature>
              <rects>
                <_>
                  12 8 11 6 -1.</_>
                <_>
                  12 10 11 2 3.</_></rects>
              <tilted>0</tilted></feature>
            <threshold>2.1679028868675232e-03</threshold>
            <left_val>-5.1951521635055542e-01</left_val>
            <right_val>1.4997610449790955e-01</right_val></_></_>
        <_>
          <!-- tree 8 -->
          <_>
            <!-- root node -->
            <feature>
              <rects>
                <_>
                  1 8 11 6 -1.</_>
                <_>
                  1 10 11 2 3.</_></rects>
              <tilted>0</tilted></feature>
            <threshold>3.4873941331170499e-04</threshold>
            <left_val>-9.3346762657165527e-01</left_val>
            <right_val>1.5365169942378998e-01</right_val></_></_></trees>
      <stage_threshold>-1.2512990236282349e+00</stage_threshold>
      <parent>7</parent>
      <next>-1</next></_>
    <_>
      <!-- stage 9 -->
      <trees>
        <_>
          <!-- tree 0 -->
          <_>
            <!-- root node -->
            <feature>
              <rects>
                <_>
                  1 5 9 5 -1.</_>
                <_>
                  4 5 3 5 3.</_></rects>
              <tilted>0</tilted></feature>
            <threshold>-2.3366840556263924e-02</threshold>
            <left_val>5.7665830850601196e-01</left_val>
            <right_val>-4.6564930677413940e-01</right_val></_></_>
        <_>
          <!-- tree 1 -->
          <_>
            <!-- root node -->
            <feature>
              <rects>
                <_>
                  11 13 2 4 -1.</_>
                <_>
                  11 15 2 2 2.</_></rects>
              <tilted>0</tilted></feature>
            <threshold>-5.3098972421139479e-04</threshold>
            <left_val>-8.0831640958786011e-01</left_val>
            <right_val>2.9114571213722229e-01</right_val></_></_>
        <_>
          <!-- tree 2 -->
          <_>
            <!-- root node -->
            <feature>
              <rects>
                <_>
                  7 4 9 3 -1.</_>
                <_>
                  7 5 9 1 3.</_></rects>
              <tilted>0</tilted></feature>
            <threshold>7.4096238240599632e-03</threshold>
            <left_val>-3.3343809843063354e-01</left_val>
            <right_val>7.8877431154251099e-01</right_val></_></_>
        <_>
          <!-- tree 3 -->
          <_>
            <!-- root node -->
            <feature>
              <rects>
                <_>
                  0 5 24 9 -1.</_>
                <_>
                  0 8 24 3 3.</_></rects>
              <tilted>0</tilted></feature>
            <threshold>3.7025671452283859e-02</threshold>
            <left_val>-6.9771468639373779e-01</left_val>
            <right_val>3.3001309633255005e-01</right_val></_></_>
        <_>
          <!-- tree 4 -->
          <_>
            <!-- root node -->
            <feature>
              <rects>
                <_>
                  5 4 14 1 -1.</_>
                <_>
                  12 4 7 1 2.</_></rects>
              <tilted>0</tilted></feature>
            <threshold>1.7834609607234597e-03</threshold>
            <left_val>1.6839750111103058e-01</left_val>
            <right_val>-7.4293887615203857e-01</right_val></_></_>
        <_>
          <!-- tree 5 -->
          <_>
            <!-- root node -->
            <feature>
              <rects>
                <_>
                  3 4 20 1 -1.</_>
                <_>
                  3 4 10 1 2.</_></rects>
              <tilted>0</tilted></feature>
            <threshold>-1.0016770102083683e-02</threshold>
            <left_val>-9.1625982522964478e-01</left_val>
            <right_val>5.7229518890380859e-02</right_val></_></_>
        <_>
          <!-- tree 6 -->
          <_>
            <!-- root node -->
            <feature>
              <rects>
                <_>
                  1 4 20 1 -1.</_>
                <_>
                  11 4 10 1 2.</_></rects>
              <tilted>0</tilted></feature>
            <threshold>-1.4418199425563216e-03</threshold>
            <left_val>-6.7875927686691284e-01</left_val>
            <right_val>3.3353289961814880e-01</right_val></_></_>
        <_>
          <!-- tree 7 -->
          <_>
            <!-- root node -->
            <feature>
              <rects>
                <_>
                  11 4 13 8 -1.</_>
                <_>
                  11 8 13 4 2.</_></rects>
              <tilted>0</tilted></feature>
            <threshold>2.1674200892448425e-02</threshold>
            <left_val>-6.2282818555831909e-01</left_val>
            <right_val>5.6216210126876831e-02</right_val></_></_>
        <_>
          <!-- tree 8 -->
          <_>
            <!-- root node -->
            <feature>
              <rects>
                <_>
                  0 5 15 9 -1.</_>
                <_>
                  0 8 15 3 3.</_></rects>
              <tilted>0</tilted></feature>
            <threshold>6.2088269740343094e-02</threshold>
            <left_val>1.9089299440383911e-01</left_val>
            <right_val>-8.1506848335266113e-01</right_val></_></_>
        <_>
          <!-- tree 9 -->
          <_>
            <!-- root node -->
            <feature>
              <rects>
                <_>
                  2 12 20 2 -1.</_>
                <_>
                  2 13 20 1 2.</_></rects>
              <tilted>0</tilted></feature>
            <threshold>4.1876381146721542e-04</threshold>
            <left_val>1.7861220240592957e-01</left_val>
            <right_val>-7.6126217842102051e-01</right_val></_></_>
        <_>
          <!-- tree 10 -->
          <_>
            <!-- root node -->
            <feature>
              <rects>
                <_>
                  2 11 3 4 -1.</_>
                <_>
                  3 11 1 4 3.</_></rects>
              <tilted>0</tilted></feature>
            <threshold>8.6525427177548409e-03</threshold>
            <left_val>-2.2382889688014984e-01</left_val>
            <right_val>7.9332202672958374e-01</right_val></_></_>
        <_>
          <!-- tree 11 -->
          <_>
            <!-- root node -->
            <feature>
              <rects>
                <_>
                  21 8 3 8 -1.</_>
                <_>
                  22 8 1 8 3.</_></rects>
              <tilted>0</tilted></feature>
            <threshold>1.1389049701392651e-02</threshold>
            <left_val>-1.6584430634975433e-01</left_val>
            <right_val>7.2610741853713989e-01</right_val></_></_>
        <_>
          <!-- tree 12 -->
          <_>
            <!-- root node -->
            <feature>
              <rects>
                <_>
                  7 10 9 6 -1.</_>
                <_>
                  7 12 9 2 3.</_></rects>
              <tilted>0</tilted></feature>
            <threshold>-1.9203550182282925e-03</threshold>
            <left_val>-9.4123768806457520e-01</left_val>
            <right_val>1.8981659412384033e-01</right_val></_></_></trees>
      <stage_threshold>-1.5046579837799072e+00</stage_threshold>
      <parent>8</parent>
      <next>-1</next></_>
    <_>
      <!-- stage 10 -->
      <trees>
        <_>
          <!-- tree 0 -->
          <_>
            <!-- root node -->
            <feature>
              <rects>
                <_>
                  8 5 8 4 -1.</_>
                <_>
                  8 7 8 2 2.</_></rects>
              <tilted>0</tilted></feature>
            <threshold>-4.4990800233790651e-05</threshold>
            <left_val>5.4960638284683228e-01</left_val>
            <right_val>-5.0294661521911621e-01</right_val></_></_>
        <_>
          <!-- tree 1 -->
          <_>
            <!-- root node -->
            <feature>
              <rects>
                <_>
                  12 5 6 9 -1.</_>
                <_>
                  14 5 2 9 3.</_></rects>
              <tilted>0</tilted></feature>
            <threshold>2.2559460252523422e-02</threshold>
            <left_val>-3.5014921426773071e-01</left_val>
            <right_val>5.7440268993377686e-01</right_val></_></_>
        <_>
          <!-- tree 2 -->
          <_>
            <!-- root node -->
            <feature>
              <rects>
                <_>
                  1 7 3 9 -1.</_>
                <_>
                  2 7 1 9 3.</_></rects>
              <tilted>0</tilted></feature>
            <threshold>1.1006079614162445e-02</threshold>
            <left_val>-2.7274841070175171e-01</left_val>
            <right_val>7.6656138896942139e-01</right_val></_></_>
        <_>
          <!-- tree 3 -->
          <_>
            <!-- root node -->
            <feature>
              <rects>
                <_>
                  16 18 8 1 -1.</_>
                <_>
                  16 18 4 1 2.</_></rects>
              <tilted>0</tilted></feature>
            <threshold>1.4536810340359807e-05</threshold>
            <left_val>-5.2514851093292236e-01</left_val>
            <right_val>2.6966321468353271e-01</right_val></_></_>
        <_>
          <!-- tree 4 -->
          <_>
            <!-- root node -->
            <feature>
              <rects>
                <_>
                  1 6 5 6 -1.</_>
                <_>
                  1 8 5 2 3.</_></rects>
              <tilted>0</tilted></feature>
            <threshold>6.6818168852478266e-04</threshold>
            <left_val>-6.4409667253494263e-01</left_val>
            <right_val>3.0270430445671082e-01</right_val></_></_>
        <_>
          <!-- tree 5 -->
          <_>
            <!-- root node -->
            <feature>
              <rects>
                <_>
                  2 4 20 6 -1.</_>
                <_>
                  2 4 10 6 2.</_></rects>
              <tilted>0</tilted></feature>
            <threshold>4.6800259500741959e-02</threshold>
            <left_val>2.1212689578533173e-01</left_val>
            <right_val>-8.7396931648254395e-01</right_val></_></_>
        <_>
          <!-- tree 6 -->
          <_>
            <!-- root node -->
            <feature>
              <rects>
                <_>
                  0 18 8 1 -1.</_>
                <_>
                  4 18 4 1 2.</_></rects>
              <tilted>0</tilted></feature>
            <threshold>1.9537120533641428e-04</threshold>
            <left_val>-6.2642401456832886e-01</left_val>
            <right_val>2.7405399084091187e-01</right_val></_></_>
        <_>
          <!-- tree 7 -->
          <_>
            <!-- root node -->
            <feature>
              <rects>
                <_>
                  5 2 15 2 -1.</_>
                <_>
                  10 2 5 2 3.</_></rects>
              <tilted>0</tilted></feature>
            <threshold>1.1235519777983427e-03</threshold>
            <left_val>3.2166078686714172e-01</left_val>
            <right_val>-4.8206579685211182e-01</right_val></_></_>
        <_>
          <!-- tree 8 -->
          <_>
            <!-- root node -->
            <feature>
              <rects>
                <_>
                  8 11 3 2 -1.</_>
                <_>
                  8 12 3 1 2.</_></rects>
              <tilted>0</tilted></feature>
            <threshold>3.9195350836962461e-04</threshold>
            <left_val>1.8155260384082794e-01</left_val>
            <right_val>-8.5737532377243042e-01</right_val></_></_>
        <_>
          <!-- tree 9 -->
          <_>
            <!-- root node -->
            <feature>
              <rects>
                <_>
                  16 12 8 8 -1.</_>
                <_>
                  16 16 8 4 2.</_></rects>
              <tilted>0</tilted></feature>
            <threshold>-8.9150831103324890e-02</threshold>
            <left_val>-5.7315671443939209e-01</left_val>
            <right_val>5.2056469023227692e-02</right_val></_></_>
        <_>
          <!-- tree 10 -->
          <_>
            <!-- root node -->
            <feature>
              <rects>
                <_>
                  1 0 5 24 -1.</_>
                <_>
                  1 12 5 12 2.</_></rects>
              <tilted>0</tilted></feature>
            <threshold>4.0248099714517593e-02</threshold>
            <left_val>2.2073450684547424e-01</left_val>
            <right_val>-6.6372311115264893e-01</right_val></_></_>
        <_>
          <!-- tree 11 -->
          <_>
            <!-- root node -->
            <feature>
              <rects>
                <_>
                  9 2 15 4 -1.</_>
                <_>
                  14 2 5 4 3.</_></rects>
              <tilted>0</tilted></feature>
            <threshold>1.1549839749932289e-02</threshold>
            <left_val>8.1986628472805023e-02</left_val>
            <right_val>-7.2627449035644531e-01</right_val></_></_>
        <_>
          <!-- tree 12 -->
          <_>
            <!-- root node -->
            <feature>
              <rects>
                <_>
                  0 2 15 4 -1.</_>
                <_>
                  5 2 5 4 3.</_></rects>
              <tilted>0</tilted></feature>
            <threshold>2.1739600226283073e-02</threshold>
            <left_val>1.7252239584922791e-01</left_val>
            <right_val>-8.3697748184204102e-01</right_val></_></_></trees>
      <stage_threshold>-1.6877880096435547e+00</stage_threshold>
      <parent>9</parent>
      <next>-1</next></_>
    <_>
      <!-- stage 11 -->
      <trees>
        <_>
          <!-- tree 0 -->
          <_>
            <!-- root node -->
            <feature>
              <rects>
                <_>
                  8 7 4 2 -1.</_>
                <_>
                  10 7 2 2 2.</_></rects>
              <tilted>0</tilted></feature>
            <threshold>-4.6038469299674034e-03</threshold>
            <left_val>8.7340611219406128e-01</left_val>
            <right_val>-3.5413309931755066e-01</right_val></_></_>
        <_>
          <!-- tree 1 -->
          <_>
            <!-- root node -->
            <feature>
              <rects>
                <_>
                  11 3 2 15 -1.</_>
                <_>
                  11 8 2 5 3.</_></rects>
              <tilted>0</tilted></feature>
            <threshold>9.8910415545105934e-03</threshold>
            <left_val>3.6098760366439819e-01</left_val>
            <right_val>-7.1851247549057007e-01</right_val></_></_>
        <_>
          <!-- tree 2 -->
          <_>
            <!-- root node -->
            <feature>
              <rects>
                <_>
                  0 8 3 7 -1.</_>
                <_>
                  1 8 1 7 3.</_></rects>
              <tilted>0</tilted></feature>
            <threshold>1.1923889629542828e-02</threshold>
            <left_val>-2.8174000978469849e-01</left_val>
            <right_val>8.0400252342224121e-01</right_val></_></_>
        <_>
          <!-- tree 3 -->
          <_>
            <!-- root node -->
            <feature>
              <rects>
                <_>
                  0 1 24 22 -1.</_>
                <_>
                  12 1 12 11 2.</_>
                <_>
                  0 12 12 11 2.</_></rects>
              <tilted>0</tilted></feature>
            <threshold>-7.3302626609802246e-02</threshold>
            <left_val>-8.4133052825927734e-01</left_val>
            <right_val>2.2670750319957733e-01</right_val></_></_>
        <_>
          <!-- tree 4 -->
          <_>
            <!-- root node -->
            <feature>
              <rects>
                <_>
                  0 0 18 22 -1.</_>
                <_>
                  0 0 9 11 2.</_>
                <_>
                  9 11 9 11 2.</_></rects>
              <tilted>0</tilted></feature>
            <threshold>-8.4138460457324982e-02</threshold>
            <left_val>-8.3351492881774902e-01</left_val>
            <right_val>1.9664740562438965e-01</right_val></_></_>
        <_>
          <!-- tree 5 -->
          <_>
            <!-- root node -->
            <feature>
              <rects>
                <_>
                  20 9 4 2 -1.</_>
                <_>
                  20 9 2 2 2.</_></rects>
              <tilted>0</tilted></feature>
            <threshold>1.2365249916911125e-02</threshold>
            <left_val>-2.8700008988380432e-01</left_val>
            <right_val>8.5642009973526001e-01</right_val></_></_>
        <_>
          <!-- tree 6 -->
          <_>
            <!-- root node -->
            <feature>
              <rects>
                <_>
                  0 1 24 12 -1.</_>
                <_>
                  0 1 12 6 2.</_>
                <_>
                  12 7 12 6 2.</_></rects>
              <tilted>0</tilted></feature>
            <threshold>8.2386493682861328e-02</threshold>
            <left_val>2.4926330149173737e-01</left_val>
            <right_val>-8.6776161193847656e-01</right_val></_></_>
        <_>
          <!-- tree 7 -->
          <_>
            <!-- root node -->
            <feature>
              <rects>
                <_>
                  1 5 22 4 -1.</_>
                <_>
                  1 7 22 2 2.</_></rects>
              <tilted>0</tilted></feature>
            <threshold>2.2667309269309044e-02</threshold>
            <left_val>-7.1284037828445435e-01</left_val>
            <right_val>1.7356939613819122e-01</right_val></_></_>
        <_>
          <!-- tree 8 -->
          <_>
            <!-- root node -->
            <feature>
              <rects>
                <_>
                  0 11 15 2 -1.</_>
                <_>
                  0 12 15 1 2.</_></rects>
              <tilted>0</tilted></feature>
            <threshold>-2.2837959695607424e-03</threshold>
            <left_val>-9.0694290399551392e-01</left_val>
            <right_val>1.5263719856739044e-01</right_val></_></_>
        <_>
          <!-- tree 9 -->
          <_>
            <!-- root node -->
            <feature>
              <rects>
                <_>
                  12 0 12 23 -1.</_>
                <_>
                  12 0 6 23 2.</_></rects>
              <tilted>0</tilted></feature>
            <threshold>2.5426331162452698e-01</threshold>
            <left_val>3.9474770426750183e-02</left_val>
            <right_val>-7.3526531457901001e-01</right_val></_></_>
        <_>
          <!-- tree 10 -->
          <_>
            <!-- root node -->
            <feature>
              <rects>
                <_>
                  5 12 13 9 -1.</_>
                <_>
                  5 15 13 3 3.</_></rects>
              <tilted>0</tilted></feature>
            <threshold>-5.1997578702867031e-03</threshold>
            <left_val>-6.1773759126663208e-01</left_val>
            <right_val>2.3348739743232727e-01</right_val></_></_>
        <_>
          <!-- tree 11 -->
          <_>
            <!-- root node -->
            <feature>
              <rects>
                <_>
                  12 0 12 23 -1.</_>
                <_>
                  12 0 6 23 2.</_></rects>
              <tilted>0</tilted></feature>
            <threshold>2.8275871276855469e-01</threshold>
            <left_val>1.5848860144615173e-02</left_val>
            <right_val>-8.0367118120193481e-01</right_val></_></_></trees>
      <stage_threshold>-1.3839119672775269e+00</stage_threshold>
      <parent>10</parent>
      <next>-1</next></_>
    <_>
      <!-- stage 12 -->
      <trees>
        <_>
          <!-- tree 0 -->
          <_>
            <!-- root node -->
            <feature>
              <rects>
                <_>
                  3 3 18 5 -1.</_>
                <_>
                  9 3 6 5 3.</_></rects>
              <tilted>0</tilted></feature>
            <threshold>9.0302273631095886e-02</threshold>
            <left_val>-4.2492890357971191e-01</left_val>
            <right_val>7.1817398071289062e-01</right_val></_></_>
        <_>
          <!-- tree 1 -->
          <_>
            <!-- root node -->
            <feature>
              <rects>
                <_>
                  12 3 4 7 -1.</_>
                <_>
                  12 3 2 7 2.</_></rects>
              <tilted>0</tilted></feature>
            <threshold>3.6325599648989737e-04</threshold>
            <left_val>2.9213890433311462e-01</left_val>
            <right_val>-3.6146450042724609e-01</right_val></_></_>
        <_>
          <!-- tree 2 -->
          <_>
            <!-- root node -->
            <feature>
              <rects>
                <_>
                  5 1 14 16 -1.</_>
                <_>
                  5 1 7 8 2.</_>
                <_>
                  12 9 7 8 2.</_></rects>
              <tilted>0</tilted></feature>
            <threshold>-3.1670138239860535e-02</threshold>
            <left_val>-7.4245268106460571e-01</left_val>
            <right_val>3.3498948812484741e-01</right_val></_></_>
        <_>
          <!-- tree 3 -->
          <_>
            <!-- root node -->
            <feature>
              <rects>
                <_>
                  22 14 2 1 -1.</_>
                <_>
                  22 14 1 1 2.</_></rects>
              <tilted>0</tilted></feature>
            <threshold>1.6154589829966426e-03</threshold>
            <left_val>-2.6621189713478088e-01</left_val>
            <right_val>7.9838621616363525e-01</right_val></_></_>
        <_>
          <!-- tree 4 -->
          <_>
            <!-- root node -->
            <feature>
              <rects>
                <_>
                  0 12 14 4 -1.</_>
                <_>
                  0 12 7 2 2.</_>
                <_>
                  7 14 7 2 2.</_></rects>
              <tilted>0</tilted></feature>
            <threshold>5.5995117872953415e-04</threshold>
            <left_val>-7.2472268342971802e-01</left_val>
            <right_val>3.2587179541587830e-01</right_val></_></_>
        <_>
          <!-- tree 5 -->
          <_>
            <!-- root node -->
            <feature>
              <rects>
                <_>
                  4 11 19 9 -1.</_>
                <_>
                  4 14 19 3 3.</_></rects>
              <tilted>0</tilted></feature>
            <threshold>1.0336710140109062e-02</threshold>
            <left_val>-5.4885447025299072e-01</left_val>
            <right_val>1.6475529968738556e-01</right_val></_></_>
        <_>
          <!-- tree 6 -->
          <_>
            <!-- root node -->
            <feature>
              <rects>
                <_>
                  0 9 24 4 -1.</_>
                <_>
                  0 9 12 2 2.</_>
                <_>
                  12 11 12 2 2.</_></rects>
              <tilted>0</tilted></feature>
            <threshold>3.8405389059334993e-03</threshold>
            <left_val>2.8807011246681213e-01</left_val>
            <right_val>-7.7693432569503784e-01</right_val></_></_>
        <_>
          <!-- tree 7 -->
          <_>
            <!-- root node -->
            <feature>
              <rects>
                <_>
                  0 4 24 2 -1.</_>
                <_>
                  0 4 12 2 2.</_></rects>
              <tilted>0</tilted></feature>
            <threshold>-1.5439109876751900e-02</threshold>
            <left_val>-7.8256982564926147e-01</left_val>
            <right_val>2.2945170104503632e-01</right_val></_></_>
        <_>
          <!-- tree 8 -->
          <_>
            <!-- root node -->
            <feature>
              <rects>
                <_>
                  7 9 6 3 -1.</_>
                <_>
                  9 9 2 3 3.</_></rects>
              <tilted>0</tilted></feature>
            <threshold>7.0406179875135422e-03</threshold>
            <left_val>-2.8313049674034119e-01</left_val>
            <right_val>9.1962647438049316e-01</right_val></_></_></trees>
      <stage_threshold>-1.1300460100173950e+00</stage_threshold>
      <parent>11</parent>
      <next>-1</next></_>
    <_>
      <!-- stage 13 -->
      <trees>
        <_>
          <!-- tree 0 -->
          <_>
            <!-- root node -->
            <feature>
              <rects>
                <_>
                  5 7 6 1 -1.</_>
                <_>
                  7 7 2 1 3.</_></rects>
              <tilted>0</tilted></feature>
            <threshold>3.0093030072748661e-03</threshold>
            <left_val>-3.8577330112457275e-01</left_val>
            <right_val>9.0954571962356567e-01</right_val></_></_>
        <_>
          <!-- tree 1 -->
          <_>
            <!-- root node -->
            <feature>
              <rects>
                <_>
                  8 18 14 1 -1.</_>
                <_>
                  8 18 7 1 2.</_></rects>
              <tilted>0</tilted></feature>
            <threshold>-7.3432218050584197e-04</threshold>
            <left_val>-4.7466591000556946e-01</left_val>
            <right_val>1.8940390646457672e-01</right_val></_></_>
        <_>
          <!-- tree 2 -->
          <_>
            <!-- root node -->
            <feature>
              <rects>
                <_>
                  2 3 20 5 -1.</_>
                <_>
                  12 3 10 5 2.</_></rects>
              <tilted>0</tilted></feature>
            <threshold>-1.2599020265042782e-02</threshold>
            <left_val>-7.2323137521743774e-01</left_val>
            <right_val>4.5726680755615234e-01</right_val></_></_>
        <_>
          <!-- tree 3 -->
          <_>
            <!-- root node -->
            <feature>
              <rects>
                <_>
                  10 8 8 6 -1.</_>
                <_>
                  14 8 4 3 2.</_>
                <_>
                  10 11 4 3 2.</_></rects>
              <tilted>0</tilted></feature>
            <threshold>-8.0027221702039242e-04</threshold>
            <left_val>-5.8771562576293945e-01</left_val>
            <right_val>3.0920770764350891e-01</right_val></_></_>
        <_>
          <!-- tree 4 -->
          <_>
            <!-- root node -->
            <feature>
              <rects>
                <_>
                  1 13 2 9 -1.</_>
                <_>
                  1 16 2 3 3.</_></rects>
              <tilted>0</tilted></feature>
            <threshold>-5.6576859205961227e-03</threshold>
            <left_val>5.4864358901977539e-01</left_val>
            <right_val>-4.7634220123291016e-01</right_val></_></_>
        <_>
          <!-- tree 5 -->
          <_>
            <!-- root node -->
            <feature>
              <rects>
                <_>
                  8 13 14 2 -1.</_>
                <_>
                  15 13 7 1 2.</_>
                <_>
                  8 14 7 1 2.</_></rects>
              <tilted>0</tilted></feature>
            <threshold>2.7405999135226011e-03</threshold>
            <left_val>1.7369259893894196e-01</left_val>
            <right_val>-4.4929289817810059e-01</right_val></_></_>
        <_>
          <!-- tree 6 -->
          <_>
            <!-- root node -->
            <feature>
              <rects>
                <_>
                  1 5 22 9 -1.</_>
                <_>
                  1 8 22 3 3.</_></rects>
              <tilted>0</tilted></feature>
            <threshold>3.3623348921537399e-02</threshold>
            <left_val>-6.9485610723495483e-01</left_val>
            <right_val>4.0650999546051025e-01</right_val></_></_>
        <_>
          <!-- tree 7 -->
          <_>
            <!-- root node -->
            <feature>
              <rects>
                <_>
                  16 3 6 1 -1.</_>
                <_>
                  18 3 2 1 3.</_></rects>
              <tilted>0</tilted></feature>
            <threshold>3.7459639133885503e-04</threshold>
            <left_val>-1.9288510084152222e-01</left_val>
            <right_val>9.2368072271347046e-01</right_val></_></_>
        <_>
          <!-- tree 8 -->
          <_>
            <!-- root node -->
            <feature>
              <rects>
                <_>
                  1 2 9 2 -1.</_>
                <_>
                  4 2 3 2 3.</_></rects>
              <tilted>0</tilted></feature>
            <threshold>-3.5095729981549084e-04</threshold>
            <left_val>-5.0640887022018433e-01</left_val>
            <right_val>5.7402938604354858e-01</right_val></_></_>
        <_>
          <!-- tree 9 -->
          <_>
            <!-- root node -->
            <feature>
              <rects>
                <_>
                  12 13 3 6 -1.</_>
                <_>
                  12 15 3 2 3.</_></rects>
              <tilted>0</tilted></feature>
            <threshold>5.0013950094580650e-03</threshold>
            <left_val>1.6433550417423248e-01</left_val>
            <right_val>-3.3012458682060242e-01</right_val></_></_>
        <_>
          <!-- tree 10 -->
          <_>
            <!-- root node -->
            <feature>
              <rects>
                <_>
                  9 13 3 6 -1.</_>
                <_>
                  9 15 3 2 3.</_></rects>
              <tilted>0</tilted></feature>
            <threshold>-3.1537411268800497e-04</threshold>
            <left_val>1.</left_val>
            <right_val>-2.6479628682136536e-01</right_val></_></_></trees>
      <stage_threshold>-1.6726850271224976e+00</stage_threshold>
      <parent>12</parent>
      <next>-1</next></_>
    <_>
      <!-- stage 14 -->
      <trees>
        <_>
          <!-- tree 0 -->
          <_>
            <!-- root node -->
            <feature>
              <rects>
                <_>
                  0 0 8 6 -1.</_>
                <_>
                  0 0 4 3 2.</_>
                <_>
                  4 3 4 3 2.</_></rects>
              <tilted>0</tilted></feature>
            <threshold>-5.7487078011035919e-03</threshold>
            <left_val>-8.2136237621307373e-01</left_val>
            <right_val>6.0334748029708862e-01</right_val></_></_>
        <_>
          <!-- tree 1 -->
          <_>
            <!-- root node -->
            <feature>
              <rects>
                <_>
                  11 4 8 3 -1.</_>
                <_>
                  11 5 8 1 3.</_></rects>
              <tilted>0</tilted></feature>
            <threshold>7.2955779614858329e-05</threshold>
            <left_val>-5.0914907455444336e-01</left_val>
            <right_val>6.8373078107833862e-01</right_val></_></_>
        <_>
          <!-- tree 2 -->
          <_>
            <!-- root node -->
            <feature>
              <rects>
                <_>
                  8 11 3 4 -1.</_>
                <_>
                  8 13 3 2 2.</_></rects>
              <tilted>0</tilted></feature>
            <threshold>-1.3151819985068869e-05</threshold>
            <left_val>8.6622118949890137e-01</left_val>
            <right_val>-4.7807508707046509e-01</right_val></_></_>
        <_>
          <!-- tree 3 -->
          <_>
            <!-- root node -->
            <feature>
              <rects>
                <_>
                  22 13 2 9 -1.</_>
                <_>
                  22 16 2 3 3.</_></rects>
              <tilted>0</tilted></feature>
            <threshold>-5.9456988237798214e-03</threshold>
            <left_val>6.4609807729721069e-01</left_val>
            <right_val>-2.1778179705142975e-01</right_val></_></_>
        <_>
          <!-- tree 4 -->
          <_>
            <!-- root node -->
            <feature>
              <rects>
                <_>
                  7 7 6 10 -1.</_>
                <_>
                  7 7 3 5 2.</_>
                <_>
                  10 12 3 5 2.</_></rects>
              <tilted>0</tilted></feature>
            <threshold>-2.1905160974711180e-03</threshold>
            <left_val>-7.2898542881011963e-01</left_val>
            <right_val>5.2185982465744019e-01</right_val></_></_>
        <_>
          <!-- tree 5 -->
          <_>
            <!-- root node -->
            <feature>
              <rects>
                <_>
                  5 1 18 23 -1.</_>
                <_>
                  5 1 9 23 2.</_></rects>
              <tilted>0</tilted></feature>
            <threshold>-1.3758949935436249e-01</threshold>
            <left_val>1.</left_val>
            <right_val>-1.6485869884490967e-01</right_val></_></_>
        <_>
          <!-- tree 6 -->
          <_>
            <!-- root node -->
            <feature>
              <rects>
                <_>
                  1 1 18 23 -1.</_>
                <_>
                  10 1 9 23 2.</_></rects>
              <tilted>0</tilted></feature>
            <threshold>-2.3154729604721069e-01</threshold>
            <left_val>-8.5473340749740601e-01</left_val>
            <right_val>4.9033299088478088e-01</right_val></_></_></trees>
      <stage_threshold>-1.1790339946746826e+00</stage_threshold>
      <parent>13</parent>
      <next>-1</next></_>
    <_>
      <!-- stage 15 -->
      <trees>
        <_>
          <!-- tree 0 -->
          <_>
            <!-- root node -->
            <feature>
              <rects>
                <_>
                  6 8 6 2 -1.</_>
                <_>
                  6 8 3 1 2.</_>
                <_>
                  9 9 3 1 2.</_></rects>
              <tilted>0</tilted></feature>
            <threshold>-8.9965091319754720e-04</threshold>
            <left_val>-8.0392748117446899e-01</left_val>
            <right_val>1.0000380277633667e+00</right_val></_></_>
        <_>
          <!-- tree 1 -->
          <_>
            <!-- root node -->
            <feature>
              <rects>
                <_>
                  14 4 2 20 -1.</_>
                <_>
                  15 4 1 10 2.</_>
                <_>
                  14 14 1 10 2.</_></rects>
              <tilted>0</tilted></feature>
            <threshold>-1.2417499674484134e-03</threshold>
            <left_val>-4.4871139526367188e-01</left_val>
            <right_val>4.6028599143028259e-01</right_val></_></_>
        <_>
          <!-- tree 2 -->
          <_>
            <!-- root node -->
            <feature>
              <rects>
                <_>
                  2 8 12 16 -1.</_>
                <_>
                  8 8 6 16 2.</_></rects>
              <tilted>0</tilted></feature>
            <threshold>1.2677650153636932e-01</threshold>
            <left_val>8.4930878877639771e-01</left_val>
            <right_val>-8.2852709293365479e-01</right_val></_></_>
        <_>
          <!-- tree 3 -->
          <_>
            <!-- root node -->
            <feature>
              <rects>
                <_>
                  12 8 3 15 -1.</_>
                <_>
                  13 8 1 15 3.</_></rects>
              <tilted>0</tilted></feature>
            <threshold>8.1636458635330200e-03</threshold>
            <left_val>-1.6877539455890656e-01</left_val>
            <right_val>1.0001209974288940e+00</right_val></_></_>
        <_>
          <!-- tree 4 -->
          <_>
            <!-- root node -->
            <feature>
              <rects>
                <_>
                  6 14 11 2 -1.</_>
                <_>
                  6 15 11 1 2.</_></rects>
              <tilted>0</tilted></feature>
            <threshold>-1.3663890058523975e-05</threshold>
            <left_val>8.8546109199523926e-01</left_val>
            <right_val>-8.0361658334732056e-01</right_val></_></_></trees>
      <stage_threshold>-1.3644800186157227e+00</stage_threshold>
      <parent>14</parent>
      <next>-1</next></_>
    <_>
      <!-- stage 16 -->
      <trees>
        <_>
          <!-- tree 0 -->
          <_>
            <!-- root node -->
            <feature>
              <rects>
                <_>
                  0 0 1 4 -1.</_>
                <_>
                  0 2 1 2 2.</_></rects>
              <tilted>0</tilted></feature>
            <threshold>-1.2736890465021133e-02</threshold>
            <left_val>-1.</left_val>
            <right_val>1.0000339746475220e+00</right_val></_></_></trees>
      <stage_threshold>1.0000339746475220e+00</stage_threshold>
      <parent>15</parent>
      <next>-1</next></_></stages></cascade>
</opencv_storage>
