<?xml version="1.0"?>
<opencv_storage>
<stage18>
  <maxWeakCount>6</maxWeakCount>
  <stageThreshold>-9.0800642967224121e-01</stageThreshold>
  <weakClassifiers>
    <_>
      <internalNodes>
        0 -1 64068 2.3946622386574745e-02</internalNodes>
      <leafValues>
        -6.2548762559890747e-01 3.9073923230171204e-01</leafValues></_>
    <_>
      <internalNodes>
        0 -1 6691 1.7691008746623993e-02</internalNodes>
      <leafValues>
        -3.5121807456016541e-01 6.8084293603897095e-01</leafValues></_>
    <_>
      <internalNodes>
        0 -1 110131 -1.3876256998628378e-03</internalNodes>
      <leafValues>
        7.0340818166732788e-01 -2.9558274149894714e-01</leafValues></_>
    <_>
      <internalNodes>
        0 -1 152566 -2.7838372625410557e-04</internalNodes>
      <leafValues>
        4.0227827429771423e-01 -6.0151124000549316e-01</leafValues></_>
    <_>
      <internalNodes>
        0 -1 3934 2.1793961524963379e-02</internalNodes>
      <leafValues>
        -9.5123732089996338e-01 2.7377331256866455e-01</leafValues></_>
    <_>
      <internalNodes>
        0 -1 20957 1.4727719128131866e-02</internalNodes>
      <leafValues>
        -3.0697098374366760e-01 8.6074221134185791e-01</leafValues></_></weakClassifiers></stage18>
</opencv_storage>
