<?xml version="1.0"?>
<opencv_storage>
<stage16>
  <maxWeakCount>6</maxWeakCount>
  <stageThreshold>-8.5162228345870972e-01</stageThreshold>
  <weakClassifiers>
    <_>
      <internalNodes>
        0 -1 74874 -4.5980552386026829e-05</internalNodes>
      <leafValues>
        4.3358394503593445e-01 -6.4632630348205566e-01</leafValues></_>
    <_>
      <internalNodes>
        0 -1 4070 7.7718824148178101e-02</internalNodes>
      <leafValues>
        -8.1224370002746582e-01 3.1774601340293884e-01</leafValues></_>
    <_>
      <internalNodes>
        0 -1 161671 -1.1727569624781609e-02</internalNodes>
      <leafValues>
        5.7912319898605347e-01 -4.1826370358467102e-01</leafValues></_>
    <_>
      <internalNodes>
        0 -1 72682 2.1669983398169279e-03</internalNodes>
      <leafValues>
        2.7861863374710083e-01 -8.5328781604766846e-01</leafValues></_>
    <_>
      <internalNodes>
        0 -1 73878 1.7042173072695732e-02</internalNodes>
      <leafValues>
        -4.4116973876953125e-01 6.1069464683532715e-01</leafValues></_>
    <_>
      <internalNodes>
        0 -1 150468 1.9944563973695040e-04</internalNodes>
      <leafValues>
        -8.6807274818420410e-01 2.4237182736396790e-01</leafValues></_></weakClassifiers></stage16>
</opencv_storage>
