<?xml version="1.0"?>
<opencv_storage>
<stage9>
  <maxWeakCount>6</maxWeakCount>
  <stageThreshold>-1.4400819540023804e+00</stageThreshold>
  <weakClassifiers>
    <_>
      <internalNodes>
        0 -1 150731 -3.3782571554183960e-02</internalNodes>
      <leafValues>
        7.4167776107788086e-01 -4.4595676660537720e-01</leafValues></_>
    <_>
      <internalNodes>
        0 -1 148154 -2.2985001123743132e-05</internalNodes>
      <leafValues>
        4.0428024530410767e-01 -7.6141613721847534e-01</leafValues></_>
    <_>
      <internalNodes>
        0 -1 8830 1.1652050539851189e-02</internalNodes>
      <leafValues>
        -3.7658372521400452e-01 7.5695544481277466e-01</leafValues></_>
    <_>
      <internalNodes>
        0 -1 65014 1.8893623724579811e-02</internalNodes>
      <leafValues>
        -4.1476789116859436e-01 6.6340446472167969e-01</leafValues></_>
    <_>
      <internalNodes>
        0 -1 8492 1.2772924266755581e-02</internalNodes>
      <leafValues>
        -8.9465034008026123e-01 3.2860952615737915e-01</leafValues></_>
    <_>
      <internalNodes>
        0 -1 144792 -1.0643554851412773e-03</internalNodes>
      <leafValues>
        -9.4259440898895264e-01 2.3003305494785309e-01</leafValues></_></weakClassifiers></stage9>
</opencv_storage>
