<?xml version="1.0"?>
<opencv_storage>
<stage7>
  <maxWeakCount>4</maxWeakCount>
  <stageThreshold>-2.9837948083877563e-01</stageThreshold>
  <weakClassifiers>
    <_>
      <internalNodes>
        0 -1 1393 1090517847 -6298893 -238977007 -950812653 1386737863
        -1432690512 1091025139 -68171017</internalNodes>
      <leafValues>
        -7.9692310094833374e-01 6.9066667556762695e-01</leafValues></_>
    <_>
      <internalNodes>
        0 -1 8305 -353637886 -534552301 -1056863525 -762322301
        -775716109 -56475646 -288104001 -606077253</internalNodes>
      <leafValues>
        -8.2754409313201904e-01 6.1560523509979248e-01</leafValues></_>
    <_>
      <internalNodes>
        0 -1 5658 -2099713 -82311552 -787246247 -3205112 1795875839
        -1624678400 -1451097864 -74503903</internalNodes>
      <leafValues>
        -8.2803940773010254e-01 5.9954565763473511e-01</leafValues></_>
    <_>
      <internalNodes>
        0 -1 4875 -236990209 -624425914 1947845471 -844041336 -49692177
        -478129910 -132477469 -1092041826</internalNodes>
      <leafValues>
        -6.9868534803390503e-01 7.2654199600219727e-01</leafValues></_></weakClassifiers></stage7>
</opencv_storage>
