<?xml version="1.0"?>
<opencv_storage>
<stage18>
  <maxWeakCount>5</maxWeakCount>
  <stageThreshold>-1.6699291467666626e+00</stageThreshold>
  <weakClassifiers>
    <_>
      <internalNodes>
        0 -1 2247 -17 -67108945 -137 1005006639 -1 -524289 -1 -93194241</internalNodes>
      <leafValues>
        -6.1121493577957153e-01 6.3495147228240967e-01</leafValues></_>
    <_>
      <internalNodes>
        0 -1 2577 -2130476664 1359102208 -2147483355 -2130608111
        -1584690808 -1450213246 -1794104613 -618950229</internalNodes>
      <leafValues>
        -5.2676725387573242e-01 7.7261400222778320e-01</leafValues></_>
    <_>
      <internalNodes>
        0 -1 8281 -777534640 -1056881662 1073741824 -1073725440
        -1073739776 -2013200384 1073954866 -234758098</internalNodes>
      <leafValues>
        -6.0724145174026489e-01 6.4409756660461426e-01</leafValues></_>
    <_>
      <internalNodes>
        0 -1 5990 -512248617 -1694498800 49564 -1692711928 -1039990610
        404258960 -2147303031 734494927</internalNodes>
      <leafValues>
        -6.2983947992324829e-01 6.0988807678222656e-01</leafValues></_>
    <_>
      <internalNodes>
        0 -1 753 -223359813 -67375876 -1895846865 -315904968 -1887468374
        -1073746842 251601835 -1879817070</internalNodes>
      <leafValues>
        -5.9424728155136108e-01 6.7642647027969360e-01</leafValues></_></weakClassifiers></stage18>
</opencv_storage>
